DB00001,-0.540512085,0.092157982,0.207670316,0.862200201,0.027476951,0.264243633,-0.318120003,0.782378972,0.528774619,-0.555405259,-0.564396441,-0.962679148,0.436288506,0.458396554,-0.726142466,0.210273206,0.508894861,-0.257993758,-0.15556258,0.070200302,-0.559980392,-0.055085674,0.501433134,-0.610793591,0.20014666,-0.130834371,-0.459934145,0.21917133,-0.446948349,0.844013035,0.498319417,0.160800755,0.28933692,1.255531669,-0.376350343,0.037448294,-0.727737248,0.304960549,0.580407917,0.018787345,0.275166512,0.224416226,0.448559046,0.224880844,0.850475967,-0.099512734,-0.124339484,-0.045414194,-0.656435549,0.464744151,0.23419401,-0.327765107,-0.386757255,0.626896322,1.332466364,1.002473235,-0.096364915,-0.273392975,-0.38266024,0.259769142,-0.574071705,-0.217167005,0.235089049,-0.425414085
P00734,-0.677274287,0.286098182,0.491006643,0.88932842,-0.065397844,0.150812671,-0.167208388,0.490411133,0.063002966,-0.333331972,-0.46278882,-1.024350166,0.528920889,0.857328713,-0.593675494,0.408331722,0.458371788,-0.357535928,-0.056777753,0.170099974,-0.397774071,0.413993448,0.406806648,-0.520999551,-0.011135323,-0.361132205,0.019842273,0.64562279,-0.258972675,0.42458725,0.131408274,0.208086446,0.306702107,0.604653955,0.054796293,0.400164217,-0.300553858,0.274479568,0.561712205,0.310659617,-0.163870454,0.536101997,0.193589419,0.172701478,0.697003543,-0.150853023,-0.336513579,0.001438345,-0.805161595,-0.090662129,0.199891672,-0.629672468,0.054102391,0.800537527,0.832549214,0.343210191,0.078096338,-0.036137812,-0.070790306,-0.013410497,-0.627400339,-0.364664316,0.01688602,-0.28516233
DB00002,0.083409958,0.493797541,0.228755355,-0.018126983,-0.48317495,0.16607672,0.235328108,1.069189191,-0.201625228,1.030033946,-0.594906032,0.946046531,1.185775757,0.574977517,-0.07192985,-0.453185618,0.489487082,-0.785886228,0.163006783,0.268815905,0.225327179,0.893892884,-0.29832691,-0.140379325,-0.086856529,-0.05338379,0.149545342,-0.810371935,-0.754116476,-1.030129433,0.750492513,0.853495896,-0.547229946,0.17062968,-0.194016695,0.025348317,0.75567323,0.617618322,0.048688795,-0.238782763,-0.216283202,0.037469454,0.611126781,0.327397645,-0.308894992,-0.165362075,-1.162209034,-0.058319762,0.006694297,0.710047364,-0.192551062,0.679711998,0.213794351,0.083879471,0.703756154,0.705516636,0.287372708,-0.554012656,0.048669655,-0.026507666,0.243556887,0.011453116,-0.531214476,0.477717489
P00533,0.564742327,-0.102836065,-0.006208587,0.391906142,-0.673503339,0.193608612,-0.161899462,0.226795852,-1.257881522,0.453504384,-0.093286857,1.251747966,-0.443451852,0.22318171,-0.502012193,-0.420516849,0.201756939,0.525140941,-0.634975791,-0.217431501,-0.041843407,-0.02000672,-0.486172438,-0.573430717,-0.555259466,0.298822373,0.396895856,0.16573067,0.320142925,-0.095579863,0.201655716,0.447290808,-0.69285816,0.114005424,0.144118592,0.443403542,0.575106025,-0.160592511,0.416121274,0.416795671,0.747294068,0.254563779,0.68612045,-0.264816374,-0.226638138,-0.2843104,-1.052616835,-0.333113015,0.123390153,0.49978441,0.433900714,0.828002095,0.129417524,0.054715205,-0.162010327,0.083524078,0.232129559,-0.426136255,0.57806313,-0.323532134,0.063349456,-0.30723089,-0.071109779,0.379133612
O75015,0.274759918,0.589039207,0.282539427,-0.334546894,-0.833500683,0.174489543,-0.532150328,1.200007558,0.628423393,0.485096484,-0.437084436,0.142634645,0.755268157,0.677057028,-0.262400448,-0.136697277,0.577059865,-0.715508938,0.464510947,0.105569333,0.468254209,0.326742262,0.110923916,-0.402740359,0.280113935,-0.214937836,-0.093154497,-0.462000668,-0.565593481,-1.794117689,0.579479098,1.549741983,-0.620021641,0.076847129,0.027174443,-0.026432773,0.569025636,0.69025439,0.167480662,-0.334337264,-0.20314613,0.150622964,0.482416064,0.519087076,-0.936796904,-0.301077932,-0.710065722,0.166398481,-0.039954104,0.522260189,-0.074882917,0.134075448,0.052672252,0.17268005,0.901889026,0.080927365,0.71450001,-0.376349658,-0.12438751,0.471255839,-0.608806014,0.237059027,0.245924145,0.399531871
P02745,0.210582942,0.554078579,0.245184168,-0.943610132,-0.629553974,-0.07124041,-0.224166021,1.061323524,0.175539449,0.884529769,-0.485403031,0.723345578,1.147443414,0.476482242,0.114562184,-0.177304775,0.917575181,-0.63062042,0.776921153,0.377796322,0.628544629,0.967660129,-0.32392633,-0.402629465,0.070749693,-0.231046021,0.074834414,-0.868944824,-1.017379761,-0.719880342,0.399670005,1.128604412,0.096501604,0.362514615,-0.333714634,-0.000651499,0.834890544,0.67623651,-0.443005651,-0.037668161,-0.497252792,0.758417487,0.705679715,0.212232813,-0.042654172,-0.261318237,-0.729781866,-0.57512635,0.144321755,0.315953046,-0.507196188,0.304412305,0.627239585,-0.189529598,1.061538339,0.42186144,0.364060849,0.356185108,0.080763228,0.503591239,-0.059386507,0.086602233,0.167102069,0.153145969
P02746,0.011979263,0.429905266,0.18964757,-0.281320155,-0.006996378,0.298192114,0.247237846,0.783370674,0.012090373,0.902134717,-0.376169264,0.231703326,0.761449337,0.105968982,0.206557915,-0.501457989,0.409835815,-0.80893892,0.176017195,-0.196776599,0.901991904,0.9723683,-0.2037604,-0.13976185,-0.043041203,-0.609191656,0.429147393,-0.290754199,-1.377462983,-0.564183772,0.329310119,0.394093275,-0.056683458,0.265475512,0.163536981,-0.212113142,0.12353912,0.46179235,-0.035886221,0.037989791,0.284160525,0.407864124,0.508445859,0.330522805,0.076346867,0.177828968,-0.758602798,-0.60777837,0.007386639,0.140224054,0.021750648,0.183325782,0.37084648,0.22056289,0.858717024,0.601006627,0.695860803,-0.216068059,-0.014451523,0.432475448,-0.069808513,0.081773788,0.098488197,0.062912427
P02747,-0.084770493,0.433086246,0.104280815,-0.128314883,-0.204858527,0.322766572,-0.183450624,0.629141152,-0.086666271,0.938611329,-0.452531755,-0.095101811,0.869895875,-0.245813131,0.341864109,-0.43570596,0.075009495,-0.844080448,0.380290449,-0.079897471,0.492765814,0.978639841,-0.12343812,-0.246557489,0.187898636,-0.564029753,0.364051998,-0.304624021,-1.373344183,-0.325875759,0.581528366,0.710576594,0.042664077,0.076231703,0.077640936,-0.027571121,0.247616604,0.391833186,-0.081674956,0.081488803,-0.310343713,0.39227435,0.585059583,0.121131048,-0.226061493,-0.172650322,-0.630952001,-0.074262299,-0.126498833,-0.145743042,-0.380631894,0.039577249,0.533819973,-0.072888955,1.082674384,0.380026937,0.364775062,-0.368727118,0.160047472,0.25532335,0.31390816,0.126815915,-0.038092941,-0.263530672
P08637,0.244212374,0.757651687,0.396750778,-0.805597723,-0.967296898,-0.186735332,-0.288138688,0.928432465,0.423911661,1.06376636,-0.424745589,0.323479891,0.835098743,0.673596025,-0.223173961,-0.054784376,0.541491866,-0.941159606,0.301525205,0.308673441,0.481687278,0.653020918,0.047142297,-0.3092435,0.740066886,0.215620697,0.074630871,-0.542342126,-0.886565447,-1.523205996,0.296791613,1.472687364,-0.572178364,0.220211685,-0.213178039,-0.28985405,0.506936848,0.589505315,-0.215942353,-0.02098958,-0.266271442,-0.042640969,0.579093635,0.413964212,-0.858856201,-0.05613555,-0.971216142,0.138044283,0.184937298,-0.074507765,-0.444578141,-0.111723773,0.52887249,-0.077542938,0.755819857,0.090785645,0.836425841,-0.445436388,-0.132247537,0.463332057,-0.537703753,0.06426727,0.13855584,0.461871952
P12314,0.248543888,0.419710487,0.473387659,-0.231913999,-0.875212252,0.012687756,-0.388496548,1.180522919,-0.141374633,0.497320503,-0.290689707,-0.336354792,0.73341465,0.683796883,0.132929996,0.516213775,0.979612291,-0.65914911,0.452289492,0.044201419,0.49790284,0.478631467,0.165719643,0.146501735,0.279912502,0.438292921,-0.318003535,-0.711507618,-0.372534484,-1.824527025,0.504463971,1.579572439,-0.579635501,-0.016485952,-0.275085896,-0.085696518,0.55412966,0.359596819,-0.26781109,-0.290008157,-0.223904282,0.328712553,0.842985034,0.006297933,-0.855240405,-0.314944595,-0.583459973,0.281270713,0.401724845,0.183037311,0.295160562,0.376747936,0.245676354,0.180982754,1.146209598,0.334207326,0.578086734,-0.541897655,0.09888725,0.533903062,-0.655851543,-0.311583579,-0.180593684,0.414613098
P12318,-0.10541337,0.782049477,0.122932725,-0.282433033,-0.825775623,-0.167727157,0.056759674,1.079814792,0.503645003,1.043796778,-0.247525305,0.663329601,0.165007666,1.060681581,0.047869682,0.456044346,0.473446518,-0.432613373,0.406882554,0.294891596,0.627372086,0.809647679,0.063515641,-0.141465619,0.079934411,-0.339140445,0.021167789,-0.902150452,-1.151886344,-1.25152564,0.798394918,1.59051466,-0.663259029,0.458213031,-0.469287336,0.102076247,0.67495501,0.618297517,-0.382869661,0.092388682,-0.287231058,0.57781297,1.06465745,0.663122535,-0.687268794,-0.213816628,-1.109245181,0.055758428,0.095902599,0.15980953,-0.38795653,0.045097221,0.531660676,-0.083796591,0.801452279,-0.198979363,0.338478148,-0.220685959,-0.48913455,0.226952851,0.121722691,-0.197308227,-0.036637422,0.461350113
DB00004,-0.934111059,-1.468407869,0.390740484,0.61789757,0.42747575,-1.074227452,0.237233773,0.855733871,-0.925690711,0.062903479,0.093839884,-0.551505268,-0.880029738,0.299852282,0.180647343,0.007009009,-0.570316136,0.251917869,-1.130406618,-0.795326948,0.695931673,0.581165671,1.058858752,-0.06910152,0.728435516,1.70973742,-0.101665586,-0.997240186,-1.104351282,0.190551817,0.836765289,1.167698026,0.471417665,0.47010389,-0.14588964,0.587003291,-0.238466278,0.149708599,0.279002786,-1.05249083,-0.403001457,0.475599766,-0.821490705,0.827237248,-0.422238916,-0.511765718,-0.053806916,0.821101665,-1.375686288,0.112321556,0.402091295,1.013544798,0.262075633,1.395920753,-1.475095272,0.078860328,0.839144707,0.019379677,-0.580007672,0.116063587,0.254122168,-0.400047541,-0.707867384,-0.473590374
P01589,-0.815948069,-1.152334094,0.140802756,0.453843594,0.216032386,-0.600274324,0.463864416,0.515700102,-0.659422517,0.08543276,-0.221705839,-0.442059577,-0.043271273,0.46803233,-0.303063542,-0.389620751,-0.407332361,0.14421837,-0.788766623,-0.930277944,1.199448109,0.628912091,1.353163242,-0.239902556,0.66936779,1.479614019,-0.07157658,-1.378903866,-1.196943045,-0.157389536,1.138854742,1.065530658,0.043613374,0.298837781,-0.59762907,0.534124911,-0.583025396,0.316770583,0.044097189,-0.90902108,-0.365396559,0.630476654,-1.571807504,1.19542706,-0.132075727,-0.030902442,0.199032724,0.528293371,-0.917162478,0.065679871,0.587248623,0.580531478,0.753777862,1.261208892,-1.61629951,0.118794493,1.104735374,0.100661822,-0.320526838,-0.128528357,0.648314655,-0.217794776,-1.024994016,-0.522208333
P14784,-1.00510776,-1.48229301,-0.162288412,0.40683189,0.114829257,-0.682742536,0.067620173,0.687258184,-0.458001018,0.032582626,0.329560518,-0.204375699,-0.385545552,0.180478901,-0.080422349,-0.391754746,-0.899425209,0.591142297,-0.856351733,-0.882597268,0.833812594,0.42102766,1.364092708,0.069661811,0.529548705,1.667440057,0.124687843,-1.060576677,-1.056693077,-0.437626809,0.346951604,1.228678346,0.168770775,0.507520676,-0.174446732,0.014805574,-0.498793393,0.04657938,0.049336683,-0.72278583,0.12749286,0.852002859,-1.587404013,0.65575707,0.053370174,-0.403923392,0.337817609,0.413223177,-1.07542479,0.271844447,0.400158197,0.574410856,0.522915661,1.355823159,-1.856707215,0.27543363,1.56036365,-0.041759234,-0.550073743,0.583800972,0.285524815,-0.429097176,-0.934354901,-0.443971127
P31785,-0.95173794,-1.23843658,0.463446617,0.471024662,0.146258503,-0.726255655,0.063811466,0.505721033,-0.829437673,0.030588392,0.204614297,-0.216582924,-0.056413181,0.31513384,-0.269944727,-0.408069581,-0.966777384,0.307446867,-0.676534235,-0.905665934,1.21878922,0.133083954,0.903255224,-0.779187024,0.457085073,1.335157275,0.031278282,-0.482983798,-1.391135573,0.26311779,0.726779819,1.267076015,-0.002251178,0.355925828,-0.285446346,0.735205173,-0.241739586,0.14437829,-0.25469926,-1.267444134,-0.533989131,0.771824121,-1.328600883,1.227998376,-0.488099366,-0.000527724,0.316243589,0.744536638,-0.766611338,0.435507357,0.610883653,0.213857546,0.473474771,1.309161425,-1.625210404,0.442365289,0.715896249,-0.534447014,-0.489999831,-0.161294937,0.466577649,-0.462016314,-0.963030875,-0.279053152
DB00005,0.093213685,0.184326291,0.103021786,-0.403872728,-0.561075449,0.193756908,0.151897386,0.850125551,-0.060110483,1.112786531,-0.304231465,0.649900079,0.997481942,0.510169566,0.130135357,0.046720538,0.830976844,-0.835426986,0.529782116,0.313258439,0.762563109,0.461321086,0.016461432,0.17176646,0.238769278,-0.136267424,0.100101836,-0.767835975,-0.79158771,-0.96572715,0.854609966,0.96751374,-0.086563654,-0.022897549,-0.365873843,0.155926481,1.260476589,0.810607076,-0.387778789,0.086391099,-0.838452876,0.361539096,0.839098752,0.488031834,-0.427573323,-0.219905823,-1.095859289,-0.176598653,-0.003772701,0.287149429,-0.183007985,-0.085104689,0.417831868,0.204556346,1.155140877,-0.256542802,0.281503826,0.040650822,-0.094305485,0.281060904,0.008354407,0.154193819,-0.044180311,0.35826081
P01375,-0.145270184,0.199697912,0.113768153,-0.593350351,-0.540277481,0.280587822,-0.047594197,0.547079086,-0.37785995,0.410045147,-0.141161323,0.389536709,0.561810076,0.107818633,0.613847852,0.136811554,0.627319157,0.485637724,0.220222652,0.370550692,0.097097129,-0.216727942,-0.035886358,0.426589191,-0.281402797,0.914422333,0.535976529,-0.198008701,0.022957679,0.133060396,-0.129219308,0.362905502,0.128688052,-0.114954934,0.15967387,-0.092318431,0.647257149,0.308746725,-0.150931925,0.241597638,-0.959967971,0.488707483,0.914439678,0.71182543,0.376583278,0.100035921,-0.57941246,0.150481924,0.321015745,0.658011258,0.258070022,-0.551933229,0.298696846,0.286141932,0.864257693,0.044751801,0.10458865,-0.278808296,0.341801167,-0.321667135,0.351093262,-0.722155511,0.013249965,0.536986709
P31994,-0.150325269,0.646502078,0.393766075,-0.182390243,-0.495932102,0.129718602,0.143093392,1.337806225,0.475851715,1.160221934,-0.07232935,0.310570866,0.874668777,0.831717551,-0.192872152,0.541044414,0.631726205,-0.42972818,0.493861169,0.572868288,0.808956802,0.653796554,0.138297528,-0.249265149,-0.163759738,0.159518585,-0.398191124,-0.79048574,-1.231737733,-1.331240296,0.844343483,1.127724648,-0.579180837,0.16839242,-0.485779136,-0.306822896,0.466029435,0.947204471,-0.465915322,-0.045035012,-0.696104825,0.552393138,1.055637121,0.404133201,-0.301142395,-0.616036534,-0.724596679,-0.049576946,-0.013683707,0.328375459,-0.655713499,0.318364143,-0.012349797,0.082818024,0.061919451,-0.072583854,0.305038899,-0.29292348,-0.350393027,0.192262426,-0.332142353,-0.158550248,-0.078467198,0.082294866
P31995,0.133923188,0.329471767,-0.098831631,-0.390154183,-0.486165464,-0.049008574,0.069445342,1.245156169,0.01134883,0.849401295,-0.462763429,0.519975841,0.742095947,0.546004295,0.308953911,0.341273189,0.800854325,-0.474777579,0.390330315,0.745863914,0.311897039,0.810495615,-0.114571244,-0.274298459,0.434985578,-0.088881299,-0.521418929,-0.970413685,-1.26873064,-0.988706827,0.796679139,1.18443203,-0.750310004,0.249937445,-0.360393286,0.044453487,0.860865235,0.651452363,-0.475155324,0.07147935,-0.174687803,0.482531041,0.706469417,0.619389951,-0.557298243,-0.359662235,-1.384059191,-0.082664654,-0.205959693,0.373039663,-0.626588941,0.202195212,0.373480231,0.569142163,0.729799688,-0.133856475,0.502826095,-0.351115316,-0.301831841,0.363019913,-0.50479579,-0.200848088,0.209644318,0.705820858
P01374,0.119863249,0.447527617,0.258618474,-0.55869621,-0.354444385,-0.172366709,-0.23003757,0.599471688,0.256395102,0.885454059,-0.629790545,0.282903463,0.924670875,0.552750051,0.313864082,0.156180382,0.739668906,-0.706072092,0.006251497,0.587026894,0.338374197,0.519743979,-0.208373353,-0.115135245,0.363138169,-0.409249812,-0.037602741,-0.769485414,-0.866863072,-0.590272427,-0.000725804,0.431743801,-0.566995025,0.527987301,-0.626272738,-0.008048343,0.885003567,1.13813746,-0.00624756,-0.125005841,-0.792639554,0.569180906,1.054929256,0.599490404,-0.477942675,-0.191266418,-0.650971353,-0.066749424,-0.010979354,0.197234794,-0.150368139,-0.288579971,0.267218918,0.086164944,1.4680655,0.545006096,0.147119015,-0.074248917,-0.232684314,0.258570671,0.116311982,0.219682693,-0.094893359,0.502397716
DB00006,-0.167457238,-0.136246219,-0.671815515,-0.071996681,0.104640044,-0.541462481,0.237516999,0.723615408,0.396447659,0.655691385,0.016589956,-0.742454052,-0.393134803,-0.019195976,-0.83845371,0.428936958,0.309949458,-0.064625762,0.173334599,0.253174722,-1.172173262,-0.107181028,-0.341063529,-0.537865818,-0.264100432,-0.014233966,-0.47480765,0.813404202,-1.142998815,0.120423563,-0.392875761,0.094231874,0.324777663,0.009010774,0.94839108,-0.081320405,-0.378250718,0.094001353,-0.14056617,0.506209433,-0.261919022,0.045353491,0.598772407,0.553013682,-0.365239173,-0.475128829,-0.960495949,0.041259021,-1.352643251,0.758392751,-0.670253336,0.029198142,-1.393709421,-0.46868214,-0.429314822,-0.373280406,0.605155349,-0.753448009,-1.109402061,-1.09452641,-0.738370359,-0.038652364,0.161269754,0.521667838
DB00007,0.393957168,-0.083368041,-0.496584952,-0.347394109,-0.045654465,-0.283544183,0.346301854,1.065882087,-0.157368883,0.184878767,0.119127974,-0.463532537,-0.181205392,-0.337908775,-0.771912754,-0.314278394,0.213990062,-0.47742337,-0.282197386,-0.069443516,-1.182314873,-0.343522251,-0.674953878,-0.374381065,-0.132321715,0.333405465,-0.340146482,0.539456487,-1.313600183,-0.180295378,-0.418143004,0.196347922,0.251958668,-0.451778024,0.568957269,-0.316979766,-0.372564286,0.265202224,-0.122914858,0.50257194,-0.384361774,0.035916798,0.728531897,0.276619405,0.05559719,0.06639488,-1.013930202,-0.311000675,-0.648656487,0.491085589,-0.756484032,-0.225143656,-1.602722049,-0.865593433,-1.055482268,-0.855864048,0.486872166,-0.571982861,-1.149887562,-0.629203737,-0.621109486,0.209268257,-0.177627966,0.281538337
P30968,0.019988334,0.132859811,-0.563233495,-0.435526729,-0.546107948,-0.489404768,0.184144422,0.74974072,-0.230300099,0.732696772,-0.086827658,-0.620878041,-0.566703498,0.851033926,-0.720455408,-0.836346805,0.395403415,-0.105075933,-0.079740494,-0.371474862,-0.709240079,-0.282141834,-0.956971884,-0.307109624,0.604381859,0.051381316,0.116632499,-0.098682046,-0.515782475,-0.321685642,0.207526267,0.440050244,0.290196955,-0.599707365,0.015270715,-0.393022835,-0.473992199,0.247244462,0.073756121,0.527890265,0.197613984,0.509972334,0.240517735,0.875190198,-0.035876513,0.492235184,-0.960250676,-0.158131093,-0.95789808,0.561283052,-0.353847057,-0.171961993,-1.010064006,-0.515035033,-0.960828543,-0.279236138,0.823340535,-0.328415453,-0.936201036,-1.10582149,-0.141193375,0.013863811,-0.187823758,0.109207444
DB00008,0.89058882,-1.051079512,0.116975427,0.338318855,-0.301915824,0.8082515,-0.989962399,-0.096352093,-0.000643777,-0.359662592,0.129160598,0.540702045,0.130931705,0.206807047,0.599247694,0.333053559,-0.949350595,0.531361341,0.781566203,-0.156390831,0.193890274,-0.854386985,0.243914261,-1.468098521,-0.671701431,0.202795804,1.112017989,0.363088131,0.184694752,0.319145858,0.43154344,0.646475434,0.065688699,-1.679711342,-0.474117488,-0.524928808,0.092555746,0.051307194,-0.264633924,-0.067216173,-0.614072263,0.675708711,-0.400229514,-0.347431839,-0.039898448,-0.077400289,0.038561352,-0.120513305,-0.634256661,-1.003479004,-0.283923924,-0.224853694,-0.71301657,1.39894855,0.5447945,0.075708643,0.112329774,-0.188185439,-0.096831098,-0.912395418,0.453605533,-0.606457412,0.929487824,0.341355324
P48551,0.702086031,-1.12768805,-0.24288635,0.255312473,-0.932498276,0.810147822,-1.134044409,0.025499823,-0.062419441,-0.456480265,0.264339626,0.364701957,-0.875304222,0.469488591,0.895264626,-0.156236649,-0.711933196,1.09931004,0.970979214,-0.073567629,-0.125630796,-0.180509105,0.400840759,-2.004359961,-0.929240465,0.338344753,0.978978574,-0.232477441,-0.20878318,0.754485726,0.463043541,0.24341701,-0.165090799,-2.210355282,-0.515799582,-0.632720768,1.106399655,-0.290169835,-0.218433082,-0.034863021,-0.374734342,0.448728412,0.005965231,-0.912754178,0.214860424,0.152732208,0.271155715,-0.359875977,-0.192163751,-0.907785833,-0.679087996,0.438300103,-0.642922223,1.147962213,0.587547541,-0.576543868,0.419031113,0.124483496,-0.417518258,-0.927433014,0.132379547,-0.699408352,0.7474491,0.198878169
P17181,1.10732305,-1.055376649,-0.189947113,0.171650186,-0.229578644,0.831825495,-0.95493567,0.132594988,0.068379529,-0.57009542,0.365284175,0.676120281,-0.949129164,0.807410061,0.578311324,-0.042026173,-0.405172974,0.289559036,0.495238066,-0.170508668,0.171215668,-0.348352671,0.553967714,-1.891703606,-0.457194507,0.18135789,0.677568316,0.027997456,0.253836781,1.358680367,0.688419282,0.393058538,-0.486355364,-2.678745747,-0.613355875,0.315880746,0.108792104,-0.478753,-0.401994973,0.42169559,-1.193923473,0.40541935,-0.228677869,-0.997918308,0.124421045,0.00123341,-0.255900025,-0.061758619,-0.437792867,-0.760089576,-0.570083916,0.061888848,-0.779227376,1.747829795,0.851817191,-0.459646553,-0.07169307,-0.266001284,-0.171028897,-1.289174676,0.58924669,-0.243931174,1.271813869,0.623387873
DB00009,0.596720755,0.234896004,-0.144625708,0.965950906,0.173955128,-0.231640249,-0.186726987,0.409017831,-0.545275569,-0.184337541,0.439996094,-0.716632068,1.265816808,1.565280318,-0.010312902,-0.151837751,0.923779428,-0.602240145,-0.182814166,-0.316823632,0.122134641,1.087381363,0.602131724,0.140093088,0.012341979,-0.123714261,0.47859031,-0.004183319,-0.615609229,0.562569797,-0.098950677,0.402899325,0.432317883,0.029740529,0.420051515,0.53899622,0.327737927,-0.030823311,0.610491097,0.007191187,-0.772549391,0.115663916,-0.067665569,0.041777585,-0.234306917,-0.205829233,0.052722041,0.150920615,0.140842304,0.903786778,-0.458821625,1.124409676,0.846020639,1.088687301,0.762436807,-0.801546454,-0.479955763,0.572813928,0.894407332,0.296315461,-1.201459289,-0.822788656,-0.536466777,-0.216229632
P00747,0.708355308,0.375838071,0.041281827,0.855162442,-0.035315957,0.23493886,-0.506649435,-0.400811344,-0.80310905,-0.309430838,0.455037385,-0.643403172,1.275891781,1.080584884,-0.146684781,-0.432282507,0.659735799,-0.429468632,-0.006374053,-0.882706225,0.20995599,0.674656808,0.98212415,0.471374631,0.606120169,-0.184060425,0.678261399,0.400794476,-0.988032579,-0.096506365,0.20917733,0.280193865,0.409641325,0.481253028,0.478171676,0.555320203,-0.072361551,0.284256935,0.589390337,0.039837852,-0.950800419,0.348887533,0.106626265,-0.0223094,-0.526979804,0.088370517,0.711471498,-0.057262875,0.38720876,0.308740348,-0.668130696,0.499705464,0.815556407,0.584039569,0.877229571,-0.703892946,0.008540237,-0.239257008,0.447813183,0.104331531,-0.482798249,-0.79384011,-0.512131453,0.275547415
P02671,-0.081552923,-0.134713575,-0.162043393,1.078415275,0.093407363,0.011972231,-0.243935183,0.626572371,-0.303489685,-0.078522667,0.066145957,-0.757448912,0.605739295,0.831973016,0.573480666,-0.019070741,0.438024819,-0.716377497,-0.352782965,-0.174165219,0.601190388,0.703790963,0.178020984,0.414188266,-0.705685437,-0.393643975,0.590492308,0.58988446,-0.970583498,0.590030491,0.113297217,0.439792007,0.124825634,0.770263672,0.514924645,0.388562828,0.450705916,0.320447534,0.686615527,0.075016886,-0.205245778,-0.064304017,-0.192842945,-0.002202881,0.474530667,0.053707656,0.230845317,-0.293162912,-0.39832744,0.592108548,-0.029738644,-0.165728986,0.502614319,0.958718717,1.039529681,-0.527942419,-0.045686342,-0.507103205,0.730747461,0.210098878,-0.562040627,-0.244577467,-0.214577273,0.045529719
Q03405,0.176266313,-0.502677858,-0.47430113,0.997461796,-0.056448583,-0.522660613,-0.426951855,-0.06492494,-0.971865296,-0.298877031,0.309731454,-0.568641365,1.283061147,0.986601055,-0.526627183,0.235914215,0.91800797,-0.872833967,0.153240457,-0.552347958,-0.156149492,0.927227974,0.593206763,-0.035827596,-0.170221418,-0.049413782,0.949707091,-0.163707629,-0.689033628,-0.171714559,-0.244107246,0.551718891,0.792530596,-0.25339058,0.386729151,0.522342384,0.00954533,-0.211006016,0.60315913,-0.46106258,-0.939715803,0.109291539,-0.040407166,-0.264778256,-0.258434445,0.110222764,0.237046316,-0.004484465,-0.388641745,0.8113994,-0.13967365,0.476724088,1.228801131,0.664491475,0.281600118,-1.00558877,-0.461830437,0.030275762,0.461514562,-0.037514683,-0.721652031,-0.816267133,-0.902373672,0.013411183
P05121,0.43531844,0.000968212,-0.145403758,0.64914602,0.135662407,-0.417905957,-0.57231015,-0.069504544,-0.86157757,0.197666958,-0.433862001,-0.57850194,1.395340562,0.64161247,-0.378807127,0.331469327,1.009102345,-0.775389671,0.061005015,-0.154713407,-0.149633884,0.735842884,0.105131306,-0.093296975,0.110266708,-0.75592792,0.125422105,0.475466669,-1.145576239,0.33536908,-0.045034632,0.300262541,0.115761526,0.301622957,0.771914423,0.474669009,-0.05601405,-0.325470924,-0.077815726,0.080587275,-0.335935771,-0.176144645,-0.17084673,-0.099120162,0.065615408,0.098212942,0.448239058,0.453948557,-0.34389469,0.640512705,-0.275190324,0.096700691,0.829693139,0.958484471,0.151309133,-0.369807243,0.113365836,-0.487175882,0.535643339,0.087981239,-0.882580936,-0.594150126,-0.869401932,-0.140689969
DB00010,-0.537318408,0.204198658,0.038236544,0.072459996,0.034033842,-0.317738682,0.449147701,0.610427201,0.624109149,-0.001848773,-0.429892659,-1.156973243,-0.773129344,0.76201725,-0.424352407,-0.182750836,0.964739501,-0.042780902,1.041688442,0.27989462,-1.226426601,-1.593890429,0.299831361,-0.501515627,-0.508208215,0.088399932,-0.650054574,0.528835475,-0.777176678,0.46952939,0.314168394,0.23095499,-0.560843408,0.451670825,-0.166348845,-0.0643498,-0.397412002,-0.063333251,0.177556321,-0.535440505,0.442742556,0.204918206,1.352131248,-0.082207903,-0.27700454,-0.133263484,-0.085903287,0.485782713,-0.899999738,1.440947652,-0.714159429,0.641726553,-1.71211195,-0.240977541,-0.172420651,0.597015858,0.075425707,-0.530427098,-0.269011259,-0.485309243,0.170298085,-0.27929458,-0.164555892,0.515071154
Q02643,0.042260975,-0.279662251,0.145286962,-0.3085244,-0.460451454,-1.298265457,0.586397827,0.360170037,0.780120552,0.727102518,-0.099566139,-0.785568655,-1.01106739,0.005528171,-1.324379563,-0.155813158,0.164473683,-0.361487329,0.322262913,0.24980019,-0.814913869,-0.774521172,0.300024062,-1.54277432,-0.059230674,0.328881532,-0.661525071,0.146720499,-0.622342169,0.263973415,0.195933655,0.343773663,0.022452874,1.322937369,-0.124258757,0.120295428,-0.711004734,-0.105369508,-0.195705861,-0.638478696,0.452726603,-0.197060511,1.128719449,-0.006602889,-0.358794272,0.185759664,-0.540163696,0.909005284,-0.677371681,1.085379601,-0.264367908,0.288331628,-1.708312988,-0.514007986,-0.354773283,-0.004329765,0.496471554,-0.999012113,0.118634649,-0.814213693,0.154717311,-0.300739437,0.398172051,0.334799975
DB00011,0.970057189,-1.333317637,0.195872694,0.407932192,-0.349730343,0.815395534,-0.824040473,0.379751563,0.287787825,-0.18429336,0.053180311,0.570161521,0.21115613,-0.296791553,0.818135262,0.491180837,-0.736762464,0.229052454,0.3155891,-0.436600298,-0.04919488,-0.9657408,1.073756814,-1.457962036,-0.321587175,0.358449399,1.080028772,0.608710766,-0.071356505,0.044204343,0.291670263,0.580146074,0.046863083,-2.03216958,-0.336888194,-0.080069929,0.11915341,-0.183796942,0.151267916,-0.047038201,-0.807575881,0.620623529,-0.148094133,-0.538640678,0.094263352,-0.104774125,0.796155155,-0.489030778,-0.552665353,-0.996292591,-0.40328297,-0.351390213,-0.805235207,1.002869487,0.664439023,-0.10964264,0.18109186,-0.405308247,-0.222663522,-0.745394051,0.222028568,-0.643989384,1.078627586,-0.058733128
DB00012,-0.43593502,-0.05064759,0.145342603,0.040144596,-1.216735125,0.347028971,0.155914411,-0.785884857,-0.119323716,-0.472521871,-0.50344342,0.533450127,-0.707790256,0.005786144,0.18941848,0.266531259,-0.327516705,-0.962245524,-0.829240501,-0.432812214,0.115309149,-0.400613159,0.349874228,0.619567871,0.176052958,-0.010129591,0.636945128,-0.566401482,0.268122435,0.187770024,-0.154175892,0.413119018,-0.291478813,0.625248253,0.589158773,-0.27520439,0.535557747,-0.327872545,0.228965551,-0.555564702,-0.042365313,0.882954538,0.191480592,0.04081485,0.058236547,-0.069352299,-0.282210439,-0.901002944,-0.700627983,0.264213592,-0.419815868,0.208669871,1.026035428,0.239260688,-0.4281573,-0.681071043,1.414684653,-0.330198467,0.101547159,0.289491296,-1.040407062,0.627641022,0.11546877,-0.165467545
P19235,-0.343874335,0.950896561,-0.082767241,-0.336799651,-1.974876761,1.163077354,0.174715444,-0.879201829,-0.406877786,-0.161669299,-0.919137001,0.627486825,-0.110929631,-0.18877627,0.234040007,0.611804366,-1.475526929,-1.066729903,-0.237286091,-0.046556093,-0.653187156,-0.560885668,0.955930889,0.592653692,0.600265384,-0.855734706,0.494146526,-0.653600812,-0.018773478,0.823926985,-0.854690015,0.486850202,-0.109478973,0.444182754,1.417458773,-0.543973267,0.809532881,0.116746701,0.011534416,-1.068243742,-0.410995901,-0.19826071,0.39397198,-0.488717407,-0.071627952,1.527730823,-0.699890375,-0.610509515,-0.521151364,0.209766299,0.071145125,-0.236880824,0.829777777,0.494523138,-1.26873982,-0.565117836,1.144282341,-0.795832694,-0.14105466,0.895103395,-0.776067972,0.447279483,0.157200366,0.658717096
DB00013,0.704129398,-0.054705031,-0.78183943,0.804811954,-0.177684531,-0.050420728,-0.537244618,0.487732232,-1.28092289,-0.274723947,-0.166899681,-0.549074411,1.726451874,1.045397997,-0.948326051,-0.440063834,0.531947911,-0.965523243,0.785252631,-0.621634245,-0.485956967,0.73164314,0.369731456,-0.004837433,-0.163196668,-0.61312598,0.441489756,-0.116479263,-0.258603007,-0.185977802,-0.461231858,0.334398776,0.193540648,0.270684242,0.266698569,0.640550792,0.163777262,0.003997581,-0.008113835,0.397779852,-1.002203226,-0.139289111,0.055669941,-0.464078516,-0.145652682,0.201535881,0.12970072,-0.220808312,-0.044210725,0.077518813,-0.466518968,0.746556401,0.888650477,1.01842165,-0.137614921,-0.791134596,-0.266290873,-0.287127227,0.386563718,0.220318243,-0.960223138,-1.443066478,-1.025769711,-0.623380899
P05120,1.091010451,-0.670005023,-0.199676797,1.065451384,0.134705976,-0.125661701,-0.682439744,-0.103347033,-0.753507137,-0.3725079,0.145872116,-0.829628408,1.589685559,1.007185817,-0.839531362,-0.084903568,0.357531279,0.061066508,0.262389481,-0.394170552,-0.199669555,-0.275790751,0.269472599,-0.305575907,-0.304722428,-0.336955309,0.824594438,-0.022186823,-0.464651674,-0.409116536,-0.03850824,0.59461993,0.552012861,0.460393697,-0.031890936,0.588182628,-0.362627238,-0.183322355,0.232653901,-0.511722684,-1.288097501,-0.35485515,0.01923774,-0.853028595,-0.45075509,-0.057791088,-0.02652999,0.249345347,-0.480610698,0.351951033,-0.356084079,0.731964827,0.530228436,0.803043783,0.136852309,-0.505052686,-0.295256644,-0.044626821,0.809023559,-0.171121299,-0.24597016,-1.241579175,-1.120578289,-0.302200764
P05154,-0.11203824,0.361571729,-0.291290939,0.340026736,-0.105647743,-0.220913425,-0.029480388,0.214665383,-0.917519629,0.455046713,-0.746287704,-0.692890048,1.150786757,0.273779839,-0.746050537,0.203290835,-0.078934118,-0.804075718,0.291394442,-0.708132029,0.055983931,0.572623432,0.117884479,-0.337733626,-0.271142691,-1.071365833,0.032760601,0.147334486,-0.989985406,-0.052628517,0.210518196,-0.302648246,0.240763485,0.213999793,0.610268176,0.29683885,-0.218567848,0.249205276,-0.256769359,0.395530194,-0.515971422,-0.282771468,0.28780812,0.066097274,-0.120785788,0.028260916,-0.571797132,-0.228673041,-0.770003855,0.571312785,-0.04379582,0.67481035,0.587191582,1.194503069,0.320115328,-0.176824421,0.452003449,-0.748583972,0.323729962,0.482715219,-0.390401214,-0.675557137,-0.860002458,-0.55419004
P98164,0.246180803,-0.760191381,0.062782817,0.528526723,-0.045591433,-0.051243935,-0.034419104,0.529330552,-1.81963098,-0.609492183,-0.608343482,-0.505968034,0.98859179,0.882114887,-0.59365803,-0.57535696,0.078236327,-0.885511994,1.553524494,-0.675825953,-0.220719293,-0.371053189,0.108527362,-0.058369126,-0.028365659,0.035362523,0.08152701,-0.578412056,0.109285086,-0.03603204,0.117889196,0.560450494,0.417378694,0.069229692,-0.186246485,0.228396118,0.03921878,0.046622973,0.487899244,0.623441339,-0.868876278,-0.150888205,0.026578687,0.193996906,-0.357043386,-0.20771946,0.114119537,-0.110393569,-0.419350207,-0.555822968,-0.057152502,0.401313514,0.633524656,1.074489594,-0.325039029,-0.35367772,0.121086039,-0.496900201,0.681158841,-0.447638303,-0.929761708,-0.98112458,-0.67600131,-1.000317574
Q9Y5Y6,0.323087096,-0.557429969,0.51878202,0.231534436,-0.383044183,-0.424532682,-0.107300006,0.635498524,-1.013363123,0.145582065,-0.068596706,-0.580747306,1.097425818,0.900804758,-0.326267391,0.270783901,0.687236071,-0.677420974,0.029458929,-0.392588288,-0.193979055,0.386995733,0.454736114,-0.249333441,0.041878473,-0.035460576,0.118951686,-0.072855391,-0.421000361,0.037727106,0.315651804,0.041244715,-0.122431695,0.247637868,0.217786685,0.921242297,-0.310478836,0.421689153,0.095171116,-0.696543515,-1.246824384,-0.065598302,0.210550472,-0.236190215,-0.076471135,-0.095669791,0.194982395,-0.155285358,-0.381530285,0.292059392,-0.30740574,0.181384087,0.628780007,0.697670519,-0.04021544,-0.494843572,-0.43713221,-0.411044806,0.563598335,0.106487677,-0.034790248,-1.00226295,-1.00407064,0.135719478
P14543,0.320256263,-0.551121831,0.098761521,0.468024939,-0.419456661,-0.279393375,-0.3765499,0.885030389,-1.165989161,0.484613776,-0.649669826,-0.484160215,0.895807743,0.980460584,-0.413646698,-0.071614534,0.389128983,-1.063683271,0.259493262,-0.97271657,-0.5801121,0.308259845,0.501555681,-0.118273184,-0.174344033,-0.163477138,0.52246052,0.120806687,-0.496088684,0.049944181,0.059068125,0.000976585,0.06289167,0.548830748,0.540301561,1.036634207,-0.419553697,0.473539859,-0.404002815,-0.52234596,-0.893778145,-0.23908779,0.225405335,-0.005740141,-0.733879089,-0.417352647,-0.248988762,-0.204671621,-0.608198285,0.058311183,0.06404531,0.509477556,0.965323806,1.213694811,0.14369978,-0.619308233,-0.43175891,-0.16610086,0.305924684,-0.00806584,-0.719699919,-0.844050229,-0.957394481,-0.519873559
DB00014,0.096322738,-0.396624595,-0.64890486,-0.566975713,0.079054318,-0.671933353,0.359271199,1.038117528,0.110638112,0.404113442,-0.014114443,-0.681745708,-0.181155995,-0.145746514,-0.582194746,-0.028179834,0.182795823,-0.393460125,-0.164248914,-0.076775216,-1.030328274,-0.165282696,-0.349711478,-0.396435529,0.096870579,0.401783228,-0.529554784,0.529670835,-1.179374337,0.028132562,0.066348344,0.012396347,0.598965704,-0.441716671,0.759987652,-0.462600499,-0.165629745,0.228421688,0.196929529,0.52226758,0.123503074,0.176892862,0.560803473,0.09029296,-0.26401487,-0.066013083,-0.990699172,-0.063439079,-1.125007987,0.713133872,-1.080489874,-0.437332034,-1.436394095,-0.496978104,-1.02116549,-0.698060989,0.757519066,-0.623955607,-1.448050618,-0.81437993,-0.552548707,0.257706642,0.001703177,0.425511509
P22888,0.205309808,0.458260238,0.014456065,-0.78133446,-0.189342737,0.108805016,0.474599093,0.733341813,-0.289164692,0.402012438,-0.296026468,-0.581920683,0.427111924,0.686084867,-0.970955729,-0.439051926,0.190643981,0.244620204,-0.096697129,0.203477919,-1.227163672,-0.544482946,0.025344523,-1.058019638,0.653495848,-0.173144594,-0.729040027,0.144107342,-0.408838302,0.538001537,0.518606424,0.196331576,0.33867386,-0.833851695,0.102811776,-0.563598156,0.598577559,1.192501545,1.165304542,0.862564445,-0.340887547,0.090419896,0.348913163,0.141139627,-0.337479204,0.834462106,-0.49259299,-0.929743886,-0.871609807,-0.452544659,-0.531837702,0.361447811,-1.377251267,-0.303081334,-0.671382666,-0.379129052,0.192886651,-0.552636743,-1.485129952,-0.703488111,-0.897225142,0.241051361,-1.468547344,0.340914905
DB00015,-0.388681322,0.031315442,-0.232310757,0.565196693,0.178092465,-0.035417434,-0.153829813,0.381273896,-0.370660275,-0.069978386,-0.380318642,-0.503046334,0.947588801,1.243253231,0.427078664,0.552741289,0.523939848,-0.92122978,0.138037235,-0.306968808,0.093157284,1.301332831,0.794560671,0.444933891,0.082716383,-0.031242378,0.396628588,0.180420622,-1.02093935,0.68854773,-0.029264679,0.540652394,0.435139775,0.422549427,0.284555703,0.6695593,0.318677098,0.35026899,0.603681982,0.101925619,-0.116067708,-0.167478278,0.097259626,-0.476688981,0.176740468,0.130791128,0.817525685,-0.176274508,-0.074254736,0.552027106,-0.364564002,0.439557672,1.258949637,0.863068283,0.763397038,-0.371492475,0.170056984,-0.069433972,0.793876886,-0.350627452,-1.045797586,-0.50203979,-0.527891636,-0.263768494
DB00016,-0.22885868,0.090481088,0.334877908,0.046881374,-1.290649772,0.20183216,0.451896459,-0.703889906,-0.003556853,-0.321173221,-0.34966585,0.308007509,-0.566597104,0.111411668,0.232002959,0.453738689,-0.429799646,-0.654317379,-1.03424859,0.06460382,0.383244753,0.061225891,0.413264483,0.692599714,0.636556208,-0.046255287,0.0779052,-0.345077306,0.442369431,0.424178123,-0.28828609,0.478270292,-0.475736529,0.495874256,0.456159979,-0.63705498,0.752706409,-0.353589863,0.453034014,-0.281770021,0.352137446,0.659511209,0.371755481,-0.301337034,-0.006515254,0.103240699,-0.456050515,-0.7197119,-0.463744313,-0.004010721,-0.518424928,0.486239076,1.163053513,0.067458838,-0.217404664,-0.423843831,1.276901245,-0.187552422,0.314539015,0.255969882,-1.133485794,0.992486656,0.211122438,-0.174755022
DB00017,-0.334488183,0.487246186,-0.10055875,-0.377729982,-0.115780443,-0.242184326,0.096695744,1.153461456,0.319193989,0.775241435,-0.252241492,-1.063404918,-1.288233519,-0.354212403,-0.641310215,-0.058528461,0.709633648,-0.16087167,0.254234105,-0.824991345,-1.438955665,-0.421591341,0.770208776,0.384465039,0.122806013,0.167384669,-0.242234185,0.571111023,-0.085496478,-0.25744161,-0.458605915,0.070285305,-0.657433391,0.755973399,1.002359033,0.573012531,-0.2523157,-0.32358551,0.249089792,-0.546319962,-0.562058091,-0.200719059,-0.100392297,0.384015709,-0.823581517,-0.675898969,0.120796606,0.003035024,-0.030188292,0.578768909,0.103566185,0.236036986,-1.350301504,-0.152883545,0.168247402,0.090757489,-0.311207741,-0.186453521,-0.018859399,-1.31761241,0.187445715,0.211800039,0.814611077,-0.002512214
P30988,-0.494101495,-0.337708801,-0.197994187,0.296550095,-1.0325315,-0.853917897,-0.130363852,0.499256372,0.508547008,0.294421852,-0.190418765,-0.666982234,-1.64056766,-0.351666063,-0.801451683,-0.047986861,0.995583475,-0.064338312,0.544057012,-0.845216632,-1.412867069,-0.755794764,0.783184588,-0.154786468,0.01768028,0.005861939,0.330789089,0.406094193,-0.123127617,-0.585631251,-0.589412034,0.80445677,-1.237793684,1.109565616,1.162726283,-0.059993651,-0.21317555,-0.519021392,0.111856721,-0.191022903,-0.249966487,-0.558748305,-0.24463813,0.609494388,-0.795486152,-0.345476657,0.095249541,0.292682081,-0.872404814,1.062186241,0.031989016,0.014300849,-0.822831452,-0.351997107,-0.416228861,0.890645325,-0.221900165,-0.306927294,-0.545205116,-1.537937999,0.923984289,0.658366203,0.853283823,0.351462096
DB00018,0.840565979,-1.026757598,0.064486764,0.412332028,-0.236362308,1.055315852,-1.159068227,0.318339765,-0.156982079,-0.129499838,0.257878512,0.469839394,-0.123886682,-0.027497748,0.782253265,0.170783907,-0.538297296,0.488107353,0.783620536,-0.436936498,0.184133559,-0.981474876,0.685446799,-1.558947563,-0.5536443,0.206971228,0.916175902,0.397053719,0.111661471,0.63050586,0.314498425,0.555689454,0.338715643,-1.658182383,-0.516990244,-0.367065728,0.061176874,-0.004458305,-0.121105283,-0.412931859,-0.502201378,0.7052899,-0.523332059,-0.44300887,-0.057379354,-0.089708105,0.202195302,-0.235931158,-0.492485732,-0.936074138,-0.644804358,-0.004726634,-0.434615523,1.503279924,0.572054386,-0.147098511,-0.067884535,-0.028272528,-0.373090208,-0.91113615,0.680342317,-0.616864681,0.714790821,0.266069829
DB00019,0.312204301,0.602673829,-0.955613136,0.10402295,-1.051754594,0.342109978,-0.426077217,-0.444438189,-0.433213919,-0.50220871,-0.19287762,0.354222387,0.030774906,0.542565107,-0.078702934,0.141665444,-0.088899434,0.092604242,-0.031775121,-0.911440849,-0.564145565,-1.04229033,0.497002095,0.784143865,0.046552319,-0.892225504,0.621007025,0.270015746,-0.730271697,0.077710204,-0.328320593,1.067483425,-1.345016718,-0.160834655,1.016614079,-0.101012483,0.897408068,0.635723472,-0.365008563,-0.08403191,-0.107396625,0.259372741,-0.451303869,1.04517436,-0.179174453,0.482049525,-0.731621385,0.121914424,-0.504890859,0.408504307,0.270509481,-0.016590567,0.215697661,0.553775072,-0.283783525,0.195213094,0.144689545,-0.119015135,-0.716126442,0.092774719,-0.227119073,-0.077139169,-0.46784693,0.279630274
Q99062,0.514766872,1.759155631,-1.173589349,-0.605883062,-0.382201076,0.92365998,-0.529961169,0.074321441,0.102230668,-0.732889235,-0.52561897,-0.208952859,-0.359297752,0.687700987,-0.117703654,-0.343016326,0.203273952,0.279482156,0.43141982,-0.631210446,-0.975984693,-1.590311527,1.001551628,1.967706203,0.554762959,-1.403945923,-0.555695057,0.327435791,-0.923178613,-0.076983482,-0.710267007,0.860405385,-1.514067173,0.463617742,1.134766698,0.79561013,1.095560074,0.681651056,-0.056488033,-0.206408009,-0.083309658,-0.232593581,-0.179125324,1.030901194,0.073921457,0.077879503,-0.99695164,-0.094306819,-0.333947659,0.723006845,0.393611491,1.199559212,-0.289814532,0.236442804,0.315751433,-0.553710222,0.45110786,-0.167008057,0.37513122,0.264192879,0.089963533,0.086057521,-0.216074333,-0.586267352
DB00020,1.423904538,0.17411907,0.435916156,-0.870464087,-0.620409667,0.655685425,0.25309068,0.260027349,0.41221714,-1.023829818,-0.844759285,0.065392658,0.893622041,0.909401774,0.320617825,-1.285576224,0.050239611,0.762605369,-0.537860394,0.334840685,0.33996737,0.29889977,0.237020299,0.669948876,-0.231325775,-0.47463733,0.115857847,1.051792741,-1.258967876,-0.064509608,0.040183872,0.044203538,0.281401932,0.39768815,0.842734814,1.693112135,1.838496208,-0.685184419,1.144258857,-0.180207223,-0.718648732,1.126493335,0.22635743,0.377465993,-0.30087021,0.524167836,-0.713916957,-0.863116205,1.125018358,0.552989542,1.269032359,0.630201161,0.15228416,-0.329206645,-0.712981462,-1.086086512,-0.076075822,-0.344818711,0.878647685,-0.482719123,0.482277393,-0.84369278,-0.213842779,0.670761406
P15509,1.033509374,0.547377229,0.836373031,-0.511559725,-0.738379121,0.030575132,0.002641414,0.676831961,0.101172537,0.095823653,-1.086861014,0.930563211,1.151363254,0.572144747,0.206615582,-0.590328872,-0.132880017,1.382271886,-0.258806437,0.555190623,-0.032717612,0.0522503,0.571377397,-0.011697099,0.382617563,0.482245207,-0.224426448,-0.005893292,-0.688792109,0.227531463,-0.520303369,-0.539197505,-0.327563077,0.236774191,0.982652128,0.936855912,0.609432638,-0.338450432,0.183323368,-0.096535623,0.011559668,0.547847986,0.593006551,0.546343684,0.406471491,0.085575499,-1.142187953,-0.171790332,-0.045149837,0.759625733,0.955986321,0.834412158,0.420357078,-0.08320564,-0.302800953,-1.010561347,-0.165364668,-0.945294142,0.93809849,-0.216930971,0.430989355,-0.495399058,-0.1801911,0.465723991
P26951,1.028005362,0.855271876,0.137143433,-0.946207702,-0.726348758,0.963478863,0.793830872,0.613811731,-0.783998191,-0.672110796,-1.207937121,0.002248307,1.764371634,0.593543708,-0.404849708,0.29718408,0.6167925,0.100407518,-0.469098598,-0.276164979,0.590074122,0.556765795,0.957364619,1.074058414,-0.167473063,-0.616884649,0.043720528,0.736428797,-0.510053694,0.56212157,0.175704703,-0.59817493,0.285380661,0.722594917,0.192303702,1.575683713,1.36793685,-0.440891981,0.283198535,-0.875994086,-0.758948267,0.225139603,0.601985753,0.171673611,-0.137557372,1.444170356,-0.382218629,-0.755120277,1.078096032,0.43527326,0.637913764,-0.412842661,-0.524201632,-0.291624814,-0.345695615,-0.389764756,-0.35227704,-0.102814697,0.465948761,0.211875275,0.436736226,-0.135508031,0.403272629,0.376860827
P32927,1.093200088,0.518478036,0.207202494,-0.538309216,-0.506940007,0.386093915,0.325865924,0.366432667,-0.214555472,-0.62533617,-0.733489335,-0.17059502,0.874251842,0.778134167,-0.21707949,-0.449867427,0.628599346,0.723067284,-0.822300673,0.504550576,0.046363477,0.211207107,0.415787995,0.777639687,0.089883819,-0.602728903,-0.020177145,0.412296683,-0.668428659,0.838579476,-0.101880848,-0.31875658,-0.404392421,0.21253486,0.541813254,0.988968551,1.398043036,-0.25102821,0.124313176,-0.216472551,-0.329954684,0.25283733,0.220480725,0.551004887,0.178199023,1.095779419,-1.004065394,-0.204752609,0.776762664,0.304849267,0.684682906,0.264474094,-0.131951451,-0.192022651,-0.31139797,-0.626564562,-0.299962491,-0.235280082,0.21442686,0.378477395,0.780214131,-0.118613876,-0.064689651,0.236510992
P34741,0.968858659,0.606307805,0.282072484,-0.555976868,-0.678712368,0.711307526,0.358869374,0.452440381,-0.019588277,-0.455891222,-0.579052031,-0.13398613,1.035588741,0.605772257,-0.341113538,-0.290242046,0.443509728,0.611158848,-0.51455307,0.543670893,-0.017198766,0.325602889,0.5687989,0.502658784,0.24631995,-0.730000973,-0.020978248,0.610833228,-0.764775276,0.700945437,-0.579024553,-0.200422451,-0.262074947,0.405442119,0.483494431,0.862388849,1.125127435,-0.198512405,0.480233431,-0.633152068,-0.119581416,0.201114014,0.116069824,0.277003497,0.047163785,1.214151263,-0.846957505,-0.229129791,0.837837934,0.132270336,0.315431356,0.452473551,-0.179065719,-0.072121948,-0.469533384,-0.755722284,-0.322973579,-0.127689898,0.330560297,0.678975642,0.510474801,-0.225744173,-0.342597097,0.540173709
P13727,1.139828563,0.108443134,0.088471018,-0.33423388,-1.083940268,0.448576599,-0.008383122,0.859293461,-0.311719835,-0.438000232,-0.632840395,0.285883874,1.833149076,0.849159539,-0.362115681,-0.70644784,0.029505599,1.11068213,-1.306447268,0.504667342,0.080463015,-0.20623,0.235111788,1.137684107,-0.291275829,-0.836551964,0.409129679,0.804589748,-1.054182649,0.167370439,-0.30265379,-0.101632841,-0.249250576,0.443467796,0.1505588,1.628443956,1.924936771,-0.135340273,0.053622629,-0.587342858,-0.091972552,0.221238345,-0.135067523,0.440175354,0.340203822,0.595176101,-0.995377421,-0.270900965,1.073984265,0.309389472,0.209124967,0.176002547,0.26235649,-0.307983577,-0.535183668,-0.255731314,-0.197721526,-0.246802852,0.128515497,0.648805022,0.608472586,-0.738166094,0.056113251,-0.109834492
DB00022,0.966337562,-0.965469539,0.15337114,0.397623867,-0.242251053,0.888939559,-0.940858364,0.311927825,0.24734813,-0.398286313,0.197074994,0.411446661,0.096196786,0.112954162,0.866850138,0.328436434,-0.611073315,0.538771391,0.494943172,-0.20078899,0.168246135,-0.932388365,0.62694329,-1.265569329,-0.719139278,0.396040648,0.918969214,0.56932807,0.279759735,0.379076421,0.285325408,0.61175561,0.336087316,-1.494786501,-0.496024907,-0.468865067,-0.002471544,-0.062815376,-0.057480905,0.067652971,-0.447494656,0.480782956,-0.459785223,-0.80824244,0.249950722,-0.376894593,0.43959251,-0.001567633,-0.510483146,-0.775501847,-0.513426602,0.003128716,-0.741476595,1.300101757,0.692267954,-0.015261481,0.019982569,-0.373483658,-0.119820796,-0.898563981,0.638130784,-0.560843349,0.932530463,0.418543398
DB00024,0.13215813,0.126027718,0.259728134,-0.177560583,-0.619450808,-0.213925242,0.353797346,0.50594306,-0.623068511,0.308566928,-0.271243274,-0.824858844,0.550546587,0.732510269,-0.319171876,-0.290440619,0.702729046,0.198935702,0.623050272,0.220546171,-0.817805827,-1.835275173,0.088923506,-0.752037823,0.706437647,-0.119254433,0.037512086,-0.168343499,0.130823553,1.005892038,0.948358357,0.450562,0.100694165,-0.932166815,0.3126266,0.368919522,0.243187636,0.61242491,0.64184469,-0.132041395,-0.372137636,-0.004300528,0.742226064,0.377363175,-0.419455618,0.613310754,-0.866577089,-0.842955828,-0.237878248,-0.089075595,0.049733654,0.513959885,-0.929026246,0.336047858,-0.07932847,-0.124931924,-0.226007566,-0.294487029,-1.111632943,-0.103624098,-0.521852851,0.148163989,-1.779013872,0.393204063
P16473,0.552580535,-0.201078042,0.122459888,-0.782822132,-0.455563784,-0.090547509,0.564284861,0.409988642,-0.372588426,0.8015486,-0.458546609,-0.400348037,0.900068402,1.051911116,-1.086568475,0.221818969,0.169863179,-0.218336344,0.433233768,-0.175784573,-0.643964171,-0.669294298,0.383961856,-1.46955204,1.436461687,-0.324992955,-0.561787486,0.189260587,-0.188919336,0.561216414,0.41979003,-0.069471367,0.716897011,-0.831777215,0.03973975,0.049889408,0.544683993,0.94884783,0.576617241,0.220157236,-0.719931364,0.168322384,0.221954361,0.549966812,-0.093130045,0.842958748,-0.716193616,-0.744941175,-0.034759294,0.00978054,-0.364956975,0.272155166,-0.869916856,0.261952013,0.03447238,-0.345039994,-0.663207591,-0.594300807,-1.489478946,-0.686700583,-0.644154847,-0.163808703,-1.40337646,0.094303735
DB00025,-0.253280848,-0.278995216,-0.628376901,0.731597781,-0.448528588,-0.054007951,-0.936142147,-0.215723798,0.408347249,-0.300011754,0.339197993,-0.098272324,0.770901442,-0.643465877,-0.626278222,0.476289481,0.668262839,0.486329854,0.550931633,-0.177773207,0.024871953,1.213117838,0.596100092,-0.212371811,-0.303957492,-0.525234818,0.149774313,0.380636573,-0.109817564,-0.08188998,-0.052339572,0.365531296,0.069882251,-0.743986189,-0.391906887,1.435834885,-0.404974431,0.202659443,0.825942278,-0.123541422,-0.065085441,-0.286246389,0.284785062,0.431892991,0.794355333,-0.580139697,-0.339041591,0.243189126,-0.888190269,0.97099179,0.671848595,0.281697959,0.301985323,0.41284281,0.669094384,-0.131767288,1.051858187,0.924693584,-0.677451789,0.377516627,-0.91097343,-0.910245478,0.719506204,0.169214949
P00742,-0.505530477,-0.433046877,0.045039974,0.739682853,-0.624949336,0.452546716,-1.09507823,-0.031065667,0.017500782,-0.592307806,-0.233490735,-0.500334561,0.48708111,0.583509862,-0.176855698,0.553738177,0.491633981,0.018620141,-0.008624069,0.408387482,-0.94736135,0.885148227,0.197024018,-0.600521564,0.413305908,-0.044195089,-0.381126553,0.957984805,0.096029222,0.399053723,-0.202400044,0.503335416,-0.084063143,-0.076736636,-0.149468049,0.91136694,-0.316719532,0.929174781,0.067847863,0.229084045,-0.389538378,0.333444953,0.279709607,0.243891612,0.486156195,-0.146775752,-0.459829986,0.062808812,-0.962650597,0.784167588,0.675673187,-0.174161002,0.128343463,0.417347074,0.717834353,-0.130195692,0.32211411,0.813789129,0.181017861,0.28425163,-0.194735661,-0.387782246,0.128428116,0.005764837
P00740,-0.331466377,-0.114704065,0.18450141,0.631450117,-0.789941728,-0.462002188,-0.998196542,0.379864484,0.542172372,-0.626254499,-0.595225394,-0.817806125,0.563957453,0.188255101,-1.21616447,0.447527081,0.440903991,0.290801942,0.052632749,0.143274203,-0.152781084,0.884584069,0.30484885,-0.47669071,0.513362467,-0.125890583,-0.238108531,0.84269172,-0.277275413,0.1884754,-0.204693109,-0.05050892,0.057722773,-0.138935596,-0.323047459,1.186166286,-0.830564559,0.834522009,-0.055161413,0.337589294,-0.491832435,0.015832072,0.150164858,0.733324528,0.758273005,-0.637452424,-0.642676115,-0.366773546,-0.93725431,0.398926675,0.678293169,0.097815335,0.096169688,0.342170507,0.734674513,-0.345795125,0.227468938,1.00761342,-0.372073084,0.280596465,-0.945534647,-0.56848228,0.338599771,0.423098832
P04275,-0.337357938,0.095832691,-0.795704126,1.038988829,-0.629630208,0.342253476,-0.741437316,-0.066202685,0.644207418,-0.308211148,-0.068367109,0.335593909,0.687154174,-0.372172117,-0.811676562,-0.106119908,1.184708834,1.261698127,0.212242305,-0.160657763,-0.219147027,0.96507591,0.837156177,0.618775129,-0.085312963,-0.96571517,-0.132306039,0.464437455,-0.11044772,-0.156597927,-0.564516425,0.726034403,-0.398861468,-1.142267823,0.011866491,0.750958145,-0.970681071,0.514877379,0.574383378,-0.33412987,0.033763792,-0.013023762,0.047286071,0.273354292,0.851064682,-0.466642052,-1.102469563,-0.403281391,-1.245543242,0.788610041,1.159314513,0.652587891,-0.51475817,0.400655717,0.392983884,0.048017934,0.988252759,1.245664597,-0.727256417,1.08549428,-0.715666234,-1.432339191,-0.010826084,0.390067756
O14832,-0.020491607,0.178405449,-0.176034421,0.975309849,-0.279874355,0.037840314,0.117459834,0.183862805,0.015040196,-1.074399114,0.541279435,-0.127005488,0.200615436,-0.310337752,-0.527026057,0.352350891,1.029057145,0.488647699,0.058011685,-0.277210742,-0.021091744,1.355556011,0.925404787,-0.396273971,-0.62192899,-0.739170194,0.363367558,0.483508468,0.043893285,0.38622573,-0.14504452,0.576019168,0.086576521,-0.461945444,-0.481723815,0.664902627,-0.325566083,0.990716338,0.563603222,-0.139010742,-0.649262905,-0.304863304,0.056582548,0.14807713,0.513492405,-0.923702121,-0.564385653,0.264593065,-0.825565875,0.828710377,0.596426249,0.296293348,-0.171903566,0.24020128,0.543211341,-0.42428717,0.911320686,1.235946536,-0.961605132,0.490584195,-0.945416749,-0.453075051,0.295530021,-0.462050408
P07307,-0.407368869,0.300598949,-0.189264178,0.787105918,-0.421595901,0.003751793,-0.73827219,-0.256231159,0.898846924,-0.811509252,0.122392096,-0.286097139,0.379854411,-0.557243526,-0.188425094,0.221932292,0.935509324,0.355175167,0.033931699,-0.717508495,-0.015440824,1.132138491,0.45448783,0.186037883,-0.409726411,-0.876387358,-0.052838132,0.37715596,-0.148588628,0.365076721,0.222118676,0.250976264,-0.340643257,-1.13390255,-0.432444096,0.998227894,-0.052981451,0.476089478,0.816932261,0.320401937,-0.310589373,-0.05479423,0.137558848,0.43310985,0.564466298,-0.303446949,-0.611918509,0.210242122,-1.121769428,0.952961683,0.590866506,0.679280818,0.172835842,0.698673606,0.523244381,-0.42694065,0.809972644,1.467399478,-0.885386884,0.152585134,-1.130470514,-1.186204314,0.419470102,0.080933973
P11021,-0.0494867,0.033953883,0.515310705,0.599162102,-0.619360924,-0.068462439,-0.673930407,-0.412095964,0.737758279,-0.450262189,0.092665926,-0.327337831,0.075080194,-0.675618887,-0.301220626,-0.175332934,-0.153119236,0.467064172,0.016198581,-0.688636005,0.435707986,1.001787901,0.75232631,-0.48355183,-0.819610715,-1.249180913,0.193754613,-0.104366831,0.149960622,0.342535079,0.245556295,0.484719008,-0.418741465,-0.666771472,-0.236174002,1.227397799,-0.204074964,0.764107347,0.693647623,-0.107163183,0.166480169,-0.315052986,-0.011904837,0.237677619,0.404234588,-0.777086258,-0.71347791,-0.101269364,-0.584290445,0.494692594,0.366877437,0.311293632,0.246505573,0.66606009,0.22899504,0.15719822,0.533406854,0.963038623,-0.243805662,0.239675805,-0.439114392,-0.940000176,0.033085883,-0.463946879
P27797,0.159822419,-0.120531291,-0.577730179,0.297072768,0.640322089,0.080527656,-0.860055685,-0.310237795,0.605228424,-0.55409646,0.533895254,0.080065198,0.560021937,-0.318582743,-0.576043606,-0.292489141,1.185738087,0.174892813,0.277887911,-0.637725294,0.292760789,0.818791568,0.347210824,0.386546463,0.13690348,-0.549412549,0.476086378,0.131481409,0.017649269,-0.320769876,0.024122635,0.199394614,0.212896869,-0.089531213,-0.309589058,0.723430753,-0.849699497,0.124498695,0.523899317,0.147407442,0.026916541,0.293477952,0.147603869,0.14325352,0.490932971,-0.332928061,-0.413179427,0.751134455,-0.173682272,0.758389831,0.416045576,0.139619693,0.541549623,0.75541091,0.581096351,-0.170619056,0.887412667,0.631628454,-0.207123116,0.671782136,-0.535795689,-0.878722131,0.017545946,0.481011689
P27824,0.018432237,-0.45724842,-0.335715532,0.60270834,0.680923223,-0.087636754,-1.036002278,-0.575578451,0.643693745,-1.268721461,0.250442773,0.054575145,0.963730335,-0.105082244,-0.397426009,-0.156174973,0.811967194,-0.045338407,0.30494073,-0.582490444,0.542558372,0.835082114,0.131408587,0.327461541,-0.114512019,-0.533357978,0.331091642,-0.01910953,-0.074414164,-0.355324477,-0.256902844,-0.258385122,0.121563599,-0.528996885,-0.432957351,0.900884628,-0.403234541,-0.291641444,0.800818861,-0.003654537,-0.49705255,0.2205998,0.555554092,0.360105664,0.086165011,-0.603928268,-0.583329916,0.790222466,-0.619876981,0.826080203,0.512878597,0.587617457,0.104187414,0.557097077,0.609572411,-0.656032443,0.593068004,0.704206407,-0.070051059,0.43688935,-0.54256916,-1.059350967,0.271658868,0.539918482
P49257,-0.223052651,0.107508428,-0.23539266,0.574767649,-0.377916425,0.163974255,-0.85996139,-0.177743763,0.54935807,-0.884958982,0.575551867,-0.384422988,0.304925948,-0.387521505,-0.020319669,0.291580051,0.417225599,0.857268035,-0.200568348,-0.5706563,-0.36941579,0.886779964,0.555775285,0.161259979,-0.579177737,-0.94991976,-0.091805577,0.419118047,-0.207263261,-0.026403733,-0.225847349,0.775376379,-0.212606803,-0.863195419,-0.292139024,0.91572988,-0.205694079,0.663249433,0.697095811,0.265022665,-0.189580724,-0.028329354,0.078546844,0.505498827,0.537508309,-0.7085886,-0.642588258,-0.151808336,-1.077501535,0.816986024,0.510243475,0.158073157,0.212582171,0.237027809,0.971135437,-0.100261495,1.036466956,1.567641735,-0.856020391,0.581697762,-0.913533032,-0.933758676,0.442988068,0.304361999
Q07954,-0.249041498,-0.263893217,0.217950791,0.839968741,0.092916802,0.367912173,-1.095663786,-0.077640139,0.048228174,-0.542548537,0.287623942,-0.941698194,0.643770278,0.094540022,-0.239183813,0.021165624,0.676025391,0.575451732,0.007013649,-0.301079184,0.099200882,1.444629312,0.624549329,-0.642495334,0.287431687,-0.482162714,0.141134843,0.558163106,-0.444323689,0.544344425,0.001352362,0.743852615,0.32475242,-0.388608426,-0.486419559,0.554454863,-0.147089645,0.3891339,0.073587544,0.256368041,-0.336659968,0.328884631,0.021062789,-0.026956677,0.757380068,-0.643287778,-0.344167113,0.160211906,-1.230807543,0.842176378,0.441022307,0.572457671,0.045580659,0.400152713,1.312678576,-0.241913065,0.578421593,0.671318471,-0.152861178,0.555266559,-1.385005355,-0.821525812,0.643467784,0.491122931
Q8NI22,-0.165688455,-0.151088357,-0.139379352,0.922344804,-0.595131874,-0.225314945,-0.880077779,-0.01801168,0.623342574,-1.123699427,0.303831309,-0.345139444,0.260936111,-0.017632501,-0.180638224,0.132520497,1.053744316,0.551165998,-0.003458917,-0.81975919,0.011874401,1.062400818,0.454012692,-0.18853274,-0.146954998,-0.509878576,0.189715326,0.374333084,-0.046309702,-0.000605817,0.122239925,0.716402233,-0.392623752,-0.892829478,-0.143180639,0.77817744,-0.188281253,0.831949174,0.359251231,0.247464821,-0.542449653,-0.25722909,0.048376899,0.071669422,0.61552763,-0.523117781,-0.894177794,0.149404824,-1.025806904,0.950618148,0.612521768,0.514819741,0.04301675,0.413929403,0.702834725,-0.081191003,1.121469259,1.121003985,-0.543988526,0.77842772,-1.041106105,-1.166501403,0.414367855,0.046946835
DB00026,0.637084663,0.336176962,0.427054971,-0.881158233,-0.373564661,-0.032775067,-0.136273772,0.208755106,-0.270269573,-0.115801923,-0.295353353,0.995592952,0.966635704,0.391754359,0.154831782,-0.202325597,0.234149262,0.840096116,0.163003221,0.680429041,-0.038977198,0.117684796,0.245881617,-0.505912721,-0.986936331,0.871561229,-0.21250169,0.043667927,0.162538841,-0.12501055,-0.853258967,-1.191508055,-0.287761569,0.812191129,0.615390718,0.755821586,0.784646988,0.330759346,-0.249803483,0.599099338,-0.529662788,-0.142786577,0.805710256,0.607836723,-0.162616581,0.049435455,-0.30068785,0.666846991,0.01771489,0.26801154,0.405515254,0.343351901,0.503563106,-0.231867477,-0.316605806,-0.610019565,0.332516879,-0.761802435,1.571608186,-0.575682998,-0.003829828,-0.58997941,-0.180158064,0.452225596
P14778,0.248330444,0.061828829,0.728161097,-1.168186069,-0.534664571,-0.665071845,-0.526069164,0.575411081,-0.541525602,0.711795747,-0.059517819,0.921770632,1.056869984,0.113852851,-0.08931122,0.001686263,0.177689761,1.139516711,-0.27076593,0.423203766,0.044822149,0.180737123,0.202302516,-0.032076001,-0.497811615,0.871611238,0.241872013,-0.215242177,0.147716418,-0.106092393,-0.76787281,-0.682180882,-0.4172723,0.729763031,0.96185106,0.712671459,0.635233104,-0.053725284,0.585901558,0.526294112,-0.608890176,0.570385396,0.971086144,0.24460569,-0.871725559,-0.638304949,-0.940332115,0.168287992,-0.980600774,-0.038024195,0.257985532,-0.324281842,0.417201757,0.034405425,0.082066849,-0.642903447,0.032924522,-0.531763434,1.19570756,0.32053107,0.197788492,-0.042603038,0.025395468,0.059040569
DB00028,0.231312677,1.110581875,-0.14461185,-0.442383856,-0.069467068,0.153044149,0.036818005,0.86811024,0.007321935,0.855255842,-0.176596269,0.399916917,0.608024538,0.291189313,-0.06284865,-0.239287674,0.234360248,-1.357925892,0.459353775,0.237659916,0.593950152,1.134042263,0.183216095,-0.363507539,-0.620471478,-0.332248807,0.126106903,-0.81568563,-0.981876194,-1.071803331,0.881640375,1.351078033,-0.637444794,0.548372388,-0.105731413,-0.22226496,0.439681649,0.196724042,0.004466466,0.25753209,-0.139024317,-0.0500318,0.992715597,-0.223566458,-1.014491677,-0.25522542,-1.164277077,-0.00175683,-0.299692452,0.003402354,0.076608248,0.267929107,0.664677978,0.248864144,0.751700461,0.263839424,0.511648476,-0.530765712,-0.22135745,0.508056045,-0.100789376,-0.406097412,-0.02374417,0.028132163
Q92637,0.381462574,0.978411376,0.037428677,-0.508632958,-0.373020262,0.673226476,-0.395588726,1.611700058,0.363093704,0.571558774,-0.228553563,-0.381790727,0.365004331,0.239622965,0.062080853,0.642105937,0.058114853,-0.866796732,1.01561141,0.358831882,0.104049154,0.402555227,0.810126781,0.38544637,0.082722552,-0.151492685,-0.377283782,-0.672985435,-0.514755428,-1.420757055,0.477536768,1.192332983,-0.545636594,0.563607454,-0.410538435,0.069461264,0.518553138,0.379591703,-0.124868087,-0.438027531,-0.145070255,0.247113273,0.896790624,0.364741355,-1.007173538,0.134444594,-1.108443141,0.110658273,0.219320506,0.180988953,-0.220589206,0.10944894,0.502724409,0.688853621,0.951292753,0.269263119,0.556138813,0.055258222,-0.192809761,0.597272158,-0.795143127,-0.129917622,0.317679763,0.147711337
P01024,-0.14985171,0.978869438,-0.030409686,-0.096459359,-0.114062905,0.852028012,-0.422365278,0.753399909,0.065168805,0.508133829,-0.214624703,0.003688945,0.439840794,0.122923344,-0.124832526,0.146731496,-0.253458172,-0.880661607,0.632521451,-0.160339236,0.585458577,1.041387796,0.171370134,-0.172121853,0.052705225,-0.628515124,0.301829547,-0.021187322,-1.188426614,-0.034750927,0.519519687,0.187133893,-0.137275338,0.380640447,0.627638698,-0.058750317,0.409823537,0.294279367,-0.198627785,0.614410162,0.184666321,0.036712017,0.4743132,-0.42374441,-0.35016647,0.371895939,-0.884355187,-0.162571862,-0.11458227,-0.34721157,0.164163336,-0.014707654,0.522238076,0.05456274,0.845930636,0.178629145,0.408965081,-0.424723834,0.204680532,0.246758625,0.459444314,0.018890794,0.046284206,-0.261710674
P0C0L4,-0.269281775,0.706398606,0.414625645,-0.313420981,-0.095722951,0.82888943,-0.828336358,1.216032267,0.135135725,0.965962172,-0.323844612,-0.135365322,0.851112366,0.075449049,0.363317639,0.085729375,0.081484914,-0.747706592,0.335962266,-0.251390487,0.871409476,1.209242463,0.250128806,0.172315806,-0.384212673,-0.508371949,-0.001906288,-0.299311161,-1.152269602,-0.330966592,0.28877303,0.243348643,-0.621849418,0.388392776,0.513805091,0.052396476,0.073339954,0.18871507,0.189530581,0.653501987,0.418153048,-0.256372213,0.392316461,-0.0370088,-0.709264457,0.188767716,-1.421794653,0.221262366,0.177105948,0.005992578,-0.401460022,0.26106742,1.040347219,0.195433706,1.116202712,0.266101629,0.680026472,-0.303180575,0.495061636,0.45561564,0.180948898,-0.119967319,0.255096614,-0.844635427
P01031,-0.419418395,0.317097217,-0.002078293,-0.220162585,-0.29401812,0.859914541,-0.690283954,0.384386778,-0.036335371,0.752057791,0.089472093,-0.069199495,0.536248446,0.151188076,0.007969023,0.048964027,-0.397572637,-1.07501924,0.483253181,-0.441440493,0.874780834,0.976224065,0.233835906,-0.366196066,0.068870321,-0.691899776,0.397148579,-0.138834655,-0.752917945,-0.164886132,-0.085042454,0.157933548,-0.289648682,0.13165547,0.19691956,0.338309497,0.000807064,0.150806636,0.464998841,0.10149055,0.142037332,-0.25941968,0.521043718,-0.422431618,0.097152598,0.183621749,-0.340745062,-0.055524085,0.176550478,-0.375762105,-0.175675362,0.366797596,0.395081043,0.161631584,1.107128382,0.311867774,0.421993941,-0.569572628,0.139826357,0.154240087,0.129642025,-0.086945482,0.033221979,-0.650862515
P0C0L5,-0.123323508,0.532619834,0.459931672,0.148211062,-0.161662236,0.780826509,-0.47252956,0.507270396,-0.0983565,0.735444784,-0.391138703,-0.434103131,0.202106014,-0.066947669,-0.409967661,-0.035685483,-0.374507189,-1.010240793,0.802373111,-0.103116646,0.804507256,1.153891087,0.115898281,-0.317398787,-0.249671727,-0.67653513,0.552215874,-0.268957138,-1.06080687,-0.040358938,0.003516291,0.44178611,-0.153104484,-0.192638934,0.398984015,0.11551597,0.215524867,0.29123494,-0.165242806,0.261179835,0.554564357,-0.346101254,0.056706838,-0.369686931,-0.084411517,0.380753607,-0.632380903,-0.03930559,-0.285600036,-0.039777849,0.024768546,0.232599348,0.645374715,0.133650348,1.067458272,0.066276208,0.715117455,-0.475453734,-0.090261042,0.296552956,0.381415606,0.018386671,0.034438878,-0.20388867
DB00029,0.529430568,0.049927574,-0.274034828,0.694095194,0.172211602,-0.419590682,-0.241064847,0.323797524,-0.579772353,-0.34496963,0.517588675,-0.528708458,1.004786849,1.020874739,-0.000362022,0.542048693,0.870440543,-0.905967712,-0.140418276,-0.271890759,0.256629348,1.117396951,0.830592275,0.086919323,-0.325632274,0.271303177,0.210359484,0.393496573,-0.598492026,0.497089952,0.026167993,0.236380517,0.117201798,0.55916512,0.799096942,0.624113262,0.413767815,0.43497923,-0.007607251,-0.328721315,-0.652162194,-0.305525541,-0.390432596,-0.101076022,0.392356247,-0.239022359,0.7248649,-0.773796499,-0.639627278,0.979252517,-0.524266839,0.391189694,1.265681624,1.186195612,1.15935576,-0.670178235,-0.032583013,-0.057128578,0.90494585,0.128583923,-0.892726958,-0.598095834,-0.476104558,0.613121569
DB00030,0.00334716,-0.012669655,-0.490970105,0.470920324,0.204395592,-0.233302131,-0.611720264,-0.408183038,-0.479735821,0.162272781,-0.727795064,0.355530113,0.202854186,-0.040804718,0.029003581,-0.025043398,-0.00036715,-0.43335104,1.051736236,-1.049554586,0.426642597,-0.653211355,0.913117111,0.004484574,-0.100604825,-0.028336706,0.331153989,-0.439302027,-1.186771154,0.663061023,-0.396896392,1.045101285,0.447622269,0.4203704,1.019255757,-0.105476685,0.440574616,-0.264584094,0.45419839,0.348264247,0.378920376,0.735561132,-0.533957958,0.038368382,-0.641526818,0.091320477,-0.925811172,-0.484562963,0.620934904,0.731327116,0.875226974,-0.026306512,0.911040783,0.917422235,-0.014532651,-0.053420782,0.973054826,-1.066635489,-0.013212481,0.106694005,-0.424534947,-0.255118728,0.792707205,-1.513891459
P06213,0.257859379,-0.055303261,-0.422209531,-0.034518126,0.748422086,-0.87818104,-0.737145603,-0.485855252,0.038141083,0.05267762,-1.06556952,0.475561529,-0.174328625,-0.226843804,-0.041179042,-0.099819198,0.004793284,-0.321818084,0.634126186,-0.134494856,0.649782121,-0.736335456,0.312511086,-0.18503511,0.076190196,-0.046518121,0.048297003,0.011071509,-0.451751232,0.905056834,-0.426538318,1.40328896,0.326679796,0.908391058,0.567943692,1.053935766,0.378912628,-0.21061103,0.33089757,1.088213325,0.132903129,0.906181812,-0.283572376,-0.418241054,-0.798702478,-0.101846755,-0.77901721,-0.60422945,0.388691902,0.164557353,1.043850422,0.489308059,0.18847619,0.820297539,-0.322806418,0.162992969,0.951994717,-0.264084935,-0.573510647,0.058893602,-0.214213803,-0.281873614,0.780339062,-1.080127478
P08069,0.601199389,-0.285837919,-0.773560107,-0.005508883,0.096223108,-0.587780654,-1.134078145,-0.694666862,-0.647632062,0.114081226,-0.515626431,0.404815495,-0.346716642,-0.134761423,-0.223156855,-0.39794898,0.263070941,-0.074295938,0.598216474,-0.626470864,0.503916442,-1.146300316,0.197574481,0.074362211,0.007007691,-0.205338031,0.411571264,-0.116557799,-0.346300244,0.764159918,-0.502856314,1.423089027,-0.241468623,0.86993742,0.389650911,0.543731809,0.055666462,0.314292639,0.499869674,1.2889148,0.041440226,1.081158042,-0.687619925,-0.282933831,-0.526030779,-0.116831109,-0.449970961,-0.528516889,0.375784278,0.454397231,1.530746579,0.06953907,0.100020453,1.242705584,-0.523606956,0.065436758,0.718256712,-0.504418492,-0.834667385,-0.264168441,-0.370477319,-0.180542916,0.43111828,-0.689482272
P06400,0.188045338,-0.428355753,-0.64572221,-0.009398629,0.069658123,-0.218692139,-0.532998025,-0.017442884,-1.12604475,-0.728731394,-0.936627448,0.238434598,-0.166470587,-0.216733873,-0.080936506,-0.429612726,-0.156557769,-0.255839825,0.889459848,-1.199143171,0.379086494,-0.8020612,0.227905974,-0.338897139,0.196164876,0.306551307,0.550477326,-0.035017263,-1.495144844,1.013939738,-0.60936445,1.519979477,0.5978598,0.466608852,0.349170715,-0.066541448,0.412910908,-0.200626358,-0.009782663,0.151699439,0.288977385,0.625972092,-0.441488326,-0.669449568,-0.905710399,-0.275107414,-1.056339502,-0.80368185,0.400961757,0.16694887,0.874620199,0.033480935,0.149238542,0.461096197,0.323700666,-0.129204839,0.646551609,-0.816524267,-0.22660245,0.734847605,-0.214790568,-0.33368209,0.573861003,-0.91357255
P16870,-0.519277573,-0.291681528,-0.296311975,0.444772035,-0.238270164,0.08205422,-0.58548516,-0.320141405,-0.565922201,0.133366749,-0.541709363,-0.233064637,-0.312151253,-0.312624216,0.291240394,-0.352288932,-0.002813083,-0.527224481,1.226360679,-1.487262487,0.308826059,-0.296572924,0.072336651,-0.271301538,0.149196193,-0.2301967,0.499002755,-0.020206356,-1.511109591,0.545404553,-0.342075169,0.779484451,0.418281108,0.362300634,-0.150725305,0.150345087,-0.007108126,-0.248559907,0.169539109,0.837367296,0.459023088,0.467056692,-0.462335587,-0.371484548,-0.570213437,0.123956516,-0.152039737,-0.910829127,0.264487207,-0.055256907,0.622641027,-0.112569064,0.527063251,0.334622711,0.766584218,0.370613486,1.124604225,-0.564510643,0.382448226,0.510744214,-0.245019823,-0.202711284,0.912968934,-1.339385152
DB00031,0.261063814,-0.374758214,-0.50450784,0.670174837,0.05957425,0.015846426,-0.636625826,0.073090047,-0.406479895,-0.311450839,0.239259511,-0.547872066,0.966386616,0.377354801,-0.231194451,0.176710337,1.07360673,-0.010909474,-0.160669208,-0.827122152,0.451837778,0.668263018,0.444186419,0.159533665,0.090083703,-0.72871536,0.652096629,0.282902569,-0.845624506,-0.207264289,-0.276204705,0.120207325,0.313550651,-0.365383118,0.215386719,0.875690997,0.317336559,0.479170769,0.165663347,-0.26451233,-0.624314785,0.422558933,0.144970849,-0.231033832,0.33143723,-0.593554318,0.296404898,0.267188698,-0.206213698,0.918009758,-0.43362537,0.302893758,0.676571548,0.836290956,0.774836242,-0.442806721,0.110781752,0.267311603,0.178003028,-0.152681008,-0.5967713,-0.750913858,-0.351023167,0.248593017
P05452,0.376440853,-0.283955306,-0.643476844,0.48201713,0.178562313,0.215104893,-0.548428714,-0.067061007,-0.28418535,-0.056321915,0.225204781,-0.777496338,1.102486134,0.226200789,-0.344798267,-0.151001647,0.106437206,0.112974644,0.028994568,-0.954416156,0.53041786,1.044899106,0.465076208,-0.348364741,0.203271091,-0.812758446,0.379082501,0.146991804,-0.648522258,0.032887734,0.262969702,0.613302946,0.113849275,0.004242962,0.46522665,0.560768723,-0.070342176,0.162795037,0.457371294,-0.232932404,-0.106906176,0.095342524,0.137568027,-0.889048576,0.459226519,-0.394495666,0.719369769,0.482887685,-0.484478295,0.349035382,-0.246488601,0.357034504,0.629822433,0.653516412,0.786315262,-0.791125655,-0.135574728,0.272893846,0.348923564,-0.087629989,0.198154733,-0.000499353,-0.727964699,0.048639759
P05787,0.336700052,0.824829936,-0.032814853,0.336824864,-0.537868023,0.161807314,-0.90121305,-0.547726691,-0.216365412,0.795104802,0.102452822,-0.084432878,1.260792613,-0.429616302,0.079854459,-0.571165442,0.471179038,-0.036138427,0.396259427,-0.743364692,0.094454281,0.198261783,0.283166319,-0.97108835,0.046016414,-0.668294251,0.78686583,0.214783147,-1.338928819,-0.204553694,-0.436010391,0.315849841,0.992139876,0.605160117,-0.112300046,-0.058192618,0.103714019,0.309874356,-0.375772297,-0.912813187,0.22200802,0.303182155,0.105153881,-0.21871683,0.963568807,-0.60942781,-0.422963679,0.220796898,-0.815726817,0.461314648,-0.379876256,-0.216328084,0.384049863,-0.079960123,1.641540408,-0.043193426,0.373251081,-0.368137687,0.359457701,0.458474725,-0.428516477,-0.866936922,0.062732957,0.262134731
P07355,0.471784681,-0.088892706,-1.088008285,0.393737912,0.1308503,-0.165472612,-1.081116557,0.259982049,-0.416523218,-1.224184155,0.949398875,-0.55723089,0.375044823,0.312693477,-0.056499276,0.195499882,-0.016040521,0.096386574,0.126175404,-0.093392842,0.844345808,1.012179375,0.069962233,-0.349743754,-0.020262072,-1.239343524,-0.401870877,0.301556617,-0.007405179,-0.009008094,-0.484244943,0.10729441,0.134584978,-0.486840904,-0.377839118,0.367954254,0.29702875,0.362327904,0.458522648,-0.324320346,-0.011978167,0.814528584,0.019993413,-0.0277432,-0.052898485,-0.380370349,0.195697486,0.4190543,-0.019022414,0.645101368,-0.480318159,0.570851922,1.008528113,1.51079452,-0.421250135,-0.612906575,-0.503127992,-0.116502203,0.126558185,-0.190558791,0.565574467,0.615540326,-0.656511247,0.11878676
DB00032,0.372325957,-0.012834489,0.235868752,-0.643422306,-0.443705082,-0.136872575,0.461517185,0.532103539,-0.234673709,0.663371801,-0.289999217,-0.485932052,0.732865751,0.60604471,-0.639198482,0.008248271,0.47137472,0.446275264,0.126381323,-0.180201545,-0.994408846,-1.758025289,-0.073993117,-1.161279559,0.865362644,-0.170150384,-0.018255644,-0.07865835,-0.012582843,0.343486696,0.405227423,0.490481675,0.530048251,-0.925153911,0.377500266,0.280213892,0.56596601,0.946801543,0.685015202,-0.371588588,-0.388107479,-0.310735375,0.108747303,0.746387661,-0.34238556,0.452955574,-1.061096787,-0.92092973,-0.428995699,-0.459457397,-0.063196316,0.320163906,-1.075854897,0.495551914,0.114042073,-0.146475732,-0.334486246,-0.531836092,-1.540789008,-0.482017934,-0.770422101,-0.024298586,-1.262928009,-0.264853716
P23945,0.397110075,-0.315695703,0.476811141,-1.034478188,-0.993647277,0.161442667,0.510558069,0.131822258,0.012770567,1.078509688,-0.360060483,-0.106647223,0.705247581,1.553279996,-0.860871792,0.037806682,-0.190277398,0.473760366,0.1277356,0.440692186,-1.324106336,-1.394668221,-0.504260182,-1.197366595,1.389523387,-0.131884977,0.015147435,1.104335189,-0.265232801,0.553052783,0.142658576,0.552930772,0.82333082,-1.44110322,0.326849312,0.463048577,0.382141501,0.890142202,1.473326325,-0.0028095,-1.057060719,-0.162888482,0.357683718,0.17815505,-0.72486788,0.615191042,-0.180656388,-0.910197496,-0.132608056,-1.034015536,-0.011222528,0.94668746,-1.108598709,0.433868647,0.153075784,0.266797453,-0.298593789,-0.796076655,-1.570668936,-0.173565164,-0.691974938,0.066439845,-1.750055075,-0.357112527
DB00033,-0.961082399,0.460974783,0.460547626,-0.79926908,0.781743348,-0.201489359,0.326262295,0.549831748,-1.335234284,-0.886432171,-0.155186743,-0.559667587,-0.555339456,-0.204417348,0.423481137,-0.485351443,-0.341005415,-0.598915696,-0.476152688,-0.700648248,-1.135642767,0.401326209,0.274794608,0.63582176,-0.501358092,0.041788597,0.017672224,0.048535354,-0.643910944,0.058514174,-0.738402188,-0.638008952,1.018417001,-0.440626889,-0.114575125,1.180246353,0.089710928,-1.016029239,-0.300156564,-0.551992834,-1.30157578,0.200670615,0.061294712,-0.296467781,0.154900178,-1.100261688,0.221312582,0.033652835,0.506330669,0.111668274,0.140182734,-0.118409231,-0.7365731,-0.321980745,0.329863757,-0.073117062,0.44199574,-0.38898316,-0.316583872,-0.944391608,0.508589625,0.964262545,0.848729253,0.052768603
P38484,-0.162775829,-0.798521698,0.486408651,-0.028351525,0.343181074,-0.830874622,0.849231422,0.189984009,-1.297463179,-0.266314268,-0.183824733,-0.347872466,-0.35630247,0.161110997,0.286136359,-0.380331546,-0.073972069,-0.030162212,-0.713178754,-0.817918122,-0.525518,-0.253197193,0.379038543,0.103030831,0.305771858,-0.040141929,-0.279198945,-0.452402979,-0.63070339,0.271294832,0.06424813,-0.463986009,0.715805769,-0.924290538,-0.758585095,1.362682223,0.223157763,-0.539419591,-0.303913444,-1.243246675,-1.376954436,0.199275106,-0.002859049,0.165446341,0.033287819,-0.530239582,0.099516526,0.229765087,0.322379142,-0.266433299,0.062265102,0.191147089,-0.140934721,-0.173565403,-0.27070114,0.402739614,-0.685482144,-0.904000998,-0.103670537,-1.163486004,0.279335469,0.438412994,0.458659381,0.232711866
P15260,-1.002495885,0.192760944,0.328628361,-0.090748906,0.799145937,-0.331600517,0.737438977,0.355006218,-1.199848175,-0.091600858,0.002528598,-0.367225081,-0.229967117,-0.097339943,-0.031062782,0.100093707,-0.559439063,-0.844837785,-0.446321696,-0.562728226,-0.367705971,-0.513750196,0.134527475,-0.043586019,0.434066504,-0.47160852,0.031087385,-0.41246435,-0.521506429,0.504168153,0.078706004,-0.219103619,0.647500038,-0.230300546,0.158757523,1.407338262,-0.086930908,0.009382441,-0.628230631,-1.572854519,-1.775021195,0.07311672,-0.045201201,0.613704026,-0.769486248,-0.126707181,-0.352233738,0.377613902,0.523886979,-0.111751929,-0.263425827,0.526678443,-0.559992969,-0.129368156,-0.58851707,-0.439044237,-0.054874692,-0.310254812,-0.41726765,-0.651649356,0.51586169,-0.678907812,0.388143688,0.145477057
DB00034,0.65298748,-0.957835793,0.095961772,0.413889468,-0.47510016,0.86196661,-0.804953873,0.084375016,-0.104627624,-0.117180459,0.168423191,0.376149803,0.134357005,-0.037424911,0.564931512,0.463323891,-0.820238054,0.376459658,0.646161556,0.046880465,0.394913763,-1.037394166,0.292877704,-1.741363049,-0.538397789,0.068506598,1.094438314,0.53371495,0.167066708,0.548101664,0.235777259,0.70885843,0.192757785,-1.370652914,-0.145500943,-0.559271574,-0.131302565,0.40309599,-0.071549304,-0.144057855,-0.331326902,0.496684551,-0.139029801,-0.016940897,-0.483611882,-0.174311683,0.156372473,-0.069263153,-0.634910107,-0.782328546,-0.518942595,-0.131501511,-0.416755736,0.958447278,0.482309222,-0.180783719,-0.179934785,0.105773717,-0.220034108,-0.885260046,0.709282517,-0.770123661,0.66400212,0.072353914
DB00035,0.128731862,0.156975135,-0.326756895,-0.86133492,0.639672637,-0.289131194,-0.250597268,0.976266384,0.008969151,-0.483160049,0.533751369,-0.055972967,-0.501988888,-0.459984779,-0.553061664,-0.614091575,-0.528967261,-0.411447763,0.032079265,-0.954347014,-0.376231939,-0.550503135,-1.416864395,-0.929328144,0.211852044,0.227419794,-0.111256272,0.372714579,-0.882127643,0.113036148,-0.269110769,-0.099232897,0.407058895,-0.019884037,0.141675964,-0.322106332,-0.423945993,0.627690911,0.265305996,0.585326254,-0.590555549,0.494490176,0.48155278,-0.277119875,-0.527690351,-0.322674066,-0.550056458,-0.385620475,0.054023542,0.481857181,-0.532041728,-0.18440263,-0.644745529,-1.296320796,-0.391174793,-0.470250219,0.151263684,-0.060107417,-1.138986588,-0.765985906,0.17032434,-0.209158123,0.168785349,-0.713223994
P30518,-0.839033425,0.132678971,0.050377391,-1.157666683,-0.195979759,0.346617997,-0.573918879,0.919937909,0.003584413,-0.655071974,-0.425059497,-0.207976758,-0.018594053,-0.526626408,-0.541350245,-0.144574717,-0.982047379,-0.170139611,-0.466946393,-0.872162402,-0.402376652,-0.641465783,-1.294308305,-0.005178439,0.542859793,0.409058481,0.452242404,0.434474438,-0.828482807,0.501109898,0.196646109,0.491752654,-0.379006594,-0.830097318,0.02261631,0.123761356,-1.317602515,0.754558086,-0.661839843,0.498695642,-0.59848845,0.79591459,0.211859196,0.081437141,-0.172268271,-0.188425541,-0.190594733,0.14987421,0.634049952,-0.004558987,-0.190380648,-0.268233299,0.065366194,-0.493633896,-0.724764347,-0.282726586,-0.426925033,-0.042985294,-1.014853716,-0.247937396,0.373284817,0.000882064,0.54246664,-0.864040792
P37288,-0.321130425,0.353202432,0.250778079,-1.845658541,0.162447423,0.613617957,-0.225868911,1.081759334,-0.270658165,-0.542791128,-0.155270055,-0.611302137,0.064726375,-0.432026893,-0.49857384,-0.239634514,-0.604894102,-0.567319095,-0.286830187,-1.496385217,-0.084436126,-0.461141735,-1.718583465,-0.296854228,0.40352264,0.241407663,0.270272523,0.69239825,-0.167897806,0.486054838,-0.193979487,-0.216814846,0.413728803,-0.34296906,-0.057644684,0.312206328,-0.543263316,0.33242324,-0.59554249,0.164723605,-0.233383849,0.971410334,0.284095377,-1.047150016,-0.876488864,-0.207182929,0.096576892,-0.023220483,0.823289514,-0.156445563,-0.322604269,-0.091458306,-0.599457741,-0.773059428,-0.082136691,-0.231339365,0.240497679,0.492108643,-1.47774303,-0.512447894,0.188774675,-0.006869806,0.34009257,-0.915599227
P47901,-0.181644708,0.683102727,-0.122561045,-1.42631793,0.773319304,0.352796376,-0.424000055,0.826931,-0.152869612,-0.731559098,0.15304783,-0.136219144,0.137264967,-0.256970227,-0.178259701,-0.657348931,-0.356814623,-0.906019866,-0.187851086,-1.041553378,-0.181605339,-0.793482482,-1.544490337,-0.589067936,0.003866672,0.226638719,0.36122793,-0.113581076,-0.376743674,0.289770097,-0.516051054,0.423084378,0.32657364,0.194667384,-0.197446808,0.128805161,-0.268484175,0.84061259,0.350490272,-0.06750939,-0.578696489,0.726042628,0.835752487,-0.506721377,-0.286567837,-0.697585881,-0.554890811,-0.219916984,0.83462441,0.003320872,-0.637323976,-0.413731635,-0.499845147,-0.998548329,0.013202322,-0.101919495,0.336048007,0.077246934,-1.939938784,-0.65897727,0.009147943,-0.148446769,0.372941703,-0.729819357
DB00036,-0.641060829,-0.110441051,0.195078745,0.221933916,-0.536750019,0.423829526,-1.064316988,0.775092602,0.57751441,-0.074484535,-0.42467472,-1.019091129,1.237923026,0.572495222,-0.273617178,1.181102276,0.270436883,-0.260658473,0.10228505,0.969611585,-0.400230795,0.592130542,-0.080355406,-0.187801376,0.945255697,0.691730261,-0.756470203,0.504238963,0.490526736,0.761701941,0.042305257,0.506527245,0.605477631,0.040938415,-0.178617775,1.066328287,-0.380276352,0.523161232,0.126300171,-0.225984335,-1.259755731,1.178967357,0.267364949,0.724057198,0.068968892,-0.448095411,-0.019092124,-0.051971335,-1.069315672,0.115738153,1.005399108,-0.413977444,0.019522177,0.62446934,0.929030597,-0.682039797,-0.172412828,0.304554611,-0.253092647,-0.079579912,-0.483918041,-0.162663728,0.708763003,0.697498858
P08709,-0.709185243,-0.26855886,0.111002028,0.691335917,-0.424268961,-0.122363247,-0.452437341,1.033637881,0.005209255,-0.277169257,-0.701347709,-0.990861535,0.968798101,1.101976037,-0.258486778,1.451013088,0.338892817,-0.213428766,-0.467263728,0.914958298,-0.164375439,0.540565014,0.234979019,0.056339722,0.331664473,0.577570856,-0.379879475,0.958775878,0.292106062,0.830066085,-0.063037097,0.122614905,0.269571871,0.670318365,-0.536870062,0.948483944,-0.096427739,0.509503782,0.449343503,0.35098666,-0.412560046,1.075075507,0.515327692,-0.144250244,0.465834856,0.017421018,-0.408650368,-0.513086557,-1.215827823,0.434926867,0.679178119,-0.30748269,0.191732317,0.315218419,0.724933267,-0.192263007,-0.132518008,0.436299324,-0.414878845,0.317135632,-0.528488338,-0.459960639,0.45884037,0.386341482
P38435,-0.084031053,-0.280287534,0.174189061,0.060560651,0.214245752,-0.064795382,-0.862702072,0.618908703,0.341192722,0.010073558,-0.287555784,-0.946682513,1.127897501,0.557360291,-0.889911056,0.180344254,-0.104066491,0.366176963,-0.047037948,0.559542656,-0.367916763,0.20725821,0.419772387,-0.132314205,0.786374807,0.438150138,-0.478990883,0.665848553,0.105625682,0.712926805,0.243476078,0.333638668,0.20641546,0.268115103,-0.522091627,0.824008226,0.069192573,-0.163162395,-0.066255227,-0.063255869,-0.435198218,0.856177866,-0.16834788,0.410703093,0.309877187,-0.251259953,-0.396392882,-0.403938591,-0.991067767,0.093074895,0.205796018,-0.556732833,0.023805043,-0.059099942,0.57446301,0.019744935,0.259587854,0.47429958,-0.506510258,0.343802631,-0.305856317,0.072365858,0.553828478,0.32997635
P10646,-0.723695636,-0.732393861,0.279257864,0.106011704,-0.862217009,0.124015853,-0.922674358,0.146469012,0.042791568,0.162416175,0.279145926,-0.872610807,0.788938761,0.562499046,0.530320823,1.068453908,0.125432879,-0.795793235,-0.446434796,0.684503615,-0.871230721,0.726874471,-0.491424888,-1.087049723,1.297299385,0.31209898,-1.150579691,-0.005793126,0.1953329,0.923611104,0.278847516,0.637288272,1.498458624,-0.176261604,-0.014388816,1.130962133,-0.130963311,0.425570339,0.597949207,0.211393297,-0.712751865,0.358772516,0.561344564,0.798060238,0.391300917,-0.347061485,-0.260119379,-0.369895905,-1.328097463,-0.159622341,0.476454556,-0.118054971,-0.051084541,0.440133482,0.58258456,-1.161782384,-0.047418807,0.543450892,0.19783923,-0.440611631,0.116113551,-0.263972014,0.913250089,0.929183006
P13726,-0.613185525,-0.400953501,0.09228646,0.47763294,-0.381461859,0.185119405,-1.010529518,0.489997208,0.319289029,-0.499221534,-0.551528215,-1.163360715,0.614320993,0.860987842,-0.107917748,1.00589931,0.807742655,0.252597898,-0.364013135,0.510555327,-0.40137127,0.645817876,0.233766064,-0.363580257,1.215571761,0.400613099,-0.465997398,0.790133536,0.56641835,0.46634528,0.640427887,0.090377532,0.116937257,-0.034089074,-0.281703055,0.974890113,-0.458049059,0.26677829,0.158278391,0.192386791,-0.867990434,1.338854074,0.497570455,0.519171059,0.240359634,-0.59654963,-0.934383571,-0.413178474,-1.61858654,-0.278767377,0.576116443,-0.342672884,0.471231341,0.603455245,0.602402329,-0.063650556,0.314440548,0.750167012,-0.750553846,0.222850904,0.057920642,-0.383567482,0.431758851,0.440546721
DB00038,0.472835124,0.442761689,-0.125118762,-0.478725195,-0.403254449,-0.14494732,-0.189974844,-0.178681731,-0.175988689,-0.244085982,-0.592341483,-0.110857606,0.092634581,0.30373913,-0.530875921,0.380846649,0.468606949,-0.085968144,0.119816005,0.224323839,-0.792116702,-0.641259968,0.272723734,0.904211998,0.614050984,-0.663382709,-0.127196431,-0.799030602,0.105120189,0.296193898,-0.956852257,-0.057556953,-0.898796678,-0.50719744,0.069002904,-0.748167932,-0.184771553,0.320221901,0.065264806,0.313398391,0.657662392,-1.320453286,0.431961566,0.284299523,-0.048633918,0.131560206,-0.024907095,0.056208663,-0.126009077,-0.178406417,0.3513183,-0.263031989,-0.671000361,-0.372832209,0.801624894,0.417635292,-0.394510955,-0.175569937,-0.564638376,0.297181547,0.014329219,-0.156663388,-0.190825745,-0.133385569
Q14626,0.228908852,1.062834978,0.45297721,-0.092475243,-0.162260935,0.216297209,0.021845039,-0.021932488,0.054992925,0.086552083,-0.139851153,-0.618005395,0.207654551,-0.080021985,0.111275524,0.663404405,0.425865024,0.039744955,0.21912913,0.283325762,-0.013897969,0.046825621,0.663659811,0.521032155,0.824020922,-0.79652828,0.057648845,-0.399649233,0.408395797,0.358401418,0.123746254,-0.193994239,-1.001795292,-0.015616355,0.099750265,-0.76877737,0.328798801,0.173466071,-0.250860929,-0.542043507,1.415263295,-0.398884594,0.205290437,0.019736502,0.590960801,0.518300533,-0.653935492,-0.196238309,0.515102327,0.51652813,0.024931075,-0.212590992,0.237782314,0.393698484,0.165398329,0.385799587,0.025261834,-0.409611046,-0.090998933,0.531398356,0.809419632,0.671428084,-0.017060263,0.064921096
DB00039,-0.603045225,0.569884121,-0.659888864,0.302459419,-0.012767077,0.148583844,-0.348172158,-0.704925418,0.325255692,0.112988956,-0.196341112,0.007625034,1.17727077,-0.428642303,-0.109056689,-0.363771647,-0.560969055,0.920137227,-0.53820467,-0.017787365,-0.694935024,-0.513368249,0.354050905,-0.249206945,-0.466742188,0.093969807,0.138225615,0.227534786,-0.226115987,0.154819369,-1.084851623,0.278784037,-0.119394124,0.01804528,0.165634796,0.0375337,0.613537729,0.115850598,0.016993942,-0.701166511,-0.492659718,0.50793314,1.281726241,-0.853114665,-0.017252881,-0.074268565,-0.640949368,0.258505613,-0.809232175,-0.216808572,-0.785422564,-0.008583294,-0.034575444,0.818995595,-0.343912661,-0.006673781,0.382438213,-0.415438712,1.534837365,-0.078872472,-0.428103656,0.500510275,-0.442747265,1.432857513
P21802,-0.15131174,-0.412682056,0.16818957,-0.271788836,-0.457680106,-0.500557125,-0.37951833,-0.457539111,-0.526796758,-0.014949653,-0.401845992,0.665065646,1.163818717,-0.356615871,0.439440638,0.090999797,-0.141273797,0.795319915,-0.110546179,0.125886112,-0.079912342,-0.391397983,-0.268381357,-0.446178347,-0.25239712,0.439714909,0.319541544,0.594238698,-0.227856323,0.257635981,-0.748515666,0.234578237,-0.165963188,0.360068083,0.1246861,0.084306307,0.491102487,0.326590002,0.014359236,0.025222564,-0.712080538,0.380882144,0.694422543,-0.513487816,-0.066707522,-0.12939018,-0.880088329,0.164709002,-0.37117058,-0.040687405,-0.483629078,-0.170477316,-0.104086287,0.684046328,0.02281522,0.066093884,-0.071636535,-0.224229977,1.348715425,-0.193316296,-0.163525894,0.204106688,-0.226172075,0.988611758
P11362,-0.07304839,-0.275763184,0.049853764,-0.086350136,0.068088338,-0.408329189,-0.23027356,-0.716413617,-0.554700077,0.40296033,-0.706863523,0.605773926,1.136879444,-0.685006142,0.058893949,0.107456923,-0.470999151,0.247677654,-0.120004483,0.336460948,-0.42064181,-0.353722543,0.019300878,-0.66548717,-0.459885955,0.387608051,0.521739542,0.868820548,-0.050641999,0.298849493,-0.632472694,0.415942311,0.001518893,0.296619564,0.249037802,0.211077616,0.442733079,0.182409257,0.144741416,-0.099165946,-0.399407089,0.181087643,0.718757153,-0.90007621,-0.102985412,-0.069161683,-0.621423006,0.286293089,-0.39250651,-0.322283119,-0.886833608,0.497686327,0.054119818,1.083681941,-0.331664592,-0.175897032,-0.09288881,0.204765245,1.408864975,-0.145675361,-0.512773573,0.751535118,-0.356063992,1.058767557
P98160,-0.388010621,0.236726314,-0.592007697,-0.166309133,-0.123171359,-0.172913268,0.494829208,-0.16972822,-0.157164931,0.605222106,-0.601307988,0.479713559,0.991500556,-0.681311369,0.421684206,0.180772826,-0.041391443,0.206316754,-0.383279979,0.59967047,-0.390842229,-0.03552584,0.017928079,-0.910960793,-0.398994446,0.331288368,0.072162457,0.239335701,-0.800348938,0.206148997,-1.343577743,0.148343548,0.044300694,0.136248872,0.185113564,-0.267941505,0.342253804,0.843795836,-0.583333313,-0.095709749,-0.619591713,0.179045454,0.306404918,-1.024507046,0.293050587,-0.103377976,-0.319677204,0.071623288,-0.303462356,0.196219966,-0.811459124,0.01992902,-0.174924493,0.218870342,-0.087697297,-0.053987671,0.514784515,-0.061800648,1.009856939,-0.264932245,-0.942152619,0.941629887,-0.338539451,0.792403519
DB00040,-1.074092627,0.807596445,0.562224627,0.841374576,-1.278901696,-0.76402688,0.722899199,0.45561111,0.135881379,0.29577449,0.29655391,-0.534662068,-0.001332224,0.242304131,0.139495775,0.648367643,-0.110635333,1.090229034,0.390097082,0.19831197,-0.054399386,-0.010224015,1.601865053,-1.064957261,-0.176085114,-0.36549598,-0.21226497,-0.64087683,0.042994197,0.123140827,0.732971251,0.264595091,-0.974258721,0.455356449,-0.244612381,-0.070450224,0.003420669,0.351708502,-0.809832811,-0.77941364,-0.363788009,-0.590206742,1.075020671,0.814165294,-0.328999043,0.432739794,-1.111600399,1.099832416,-0.554844797,1.632781982,-0.103132091,0.147884831,-1.269272804,0.47506237,-1.224777699,1.068422914,0.295618773,0.192171425,-0.986583948,-0.758012056,0.516289473,-0.550126255,-0.755358338,0.264311939
P47871,-0.567423284,0.25380528,0.672243774,0.444518447,-1.440248132,-0.799232423,0.500603437,0.589960814,0.845392644,0.562928438,0.464648426,-0.181758016,0.012293719,0.077568017,0.141543448,0.734756172,-0.357877582,0.858810902,0.36476773,-0.649360418,-0.097213782,0.532603204,1.553850174,-0.932491779,-0.151692152,-0.406513423,0.214198843,-0.35297507,-0.381662369,-0.470965624,0.340171635,0.311463445,-0.299125075,1.120662093,0.180645779,0.581639349,-0.402506977,0.53008914,-0.998137593,-0.789192259,-0.604024529,-0.558328688,0.615106642,1.057667971,-0.319212496,0.493168235,-0.939479768,0.890453637,-0.418065399,1.292660117,-0.27397266,-0.100169852,-1.723176122,-0.005931574,-1.520345211,0.986486495,0.142991588,0.319606215,-1.077180982,-0.423030376,0.139530465,-0.154829428,-1.22653842,-0.331063509
P43220,-1.300193548,0.443686217,0.013892891,0.332499385,-1.76142633,-0.198402941,0.725833476,0.429069728,0.86656487,0.25569126,0.938414872,-0.212719575,-0.425285578,0.655112207,0.173856243,0.56386131,-0.559986353,0.817950308,0.578457654,-0.310440123,-0.768319666,-0.339111239,1.392230749,-1.106304049,-0.721649587,-0.461520016,-0.200037107,0.312537014,-0.250795245,-0.534508169,0.247918263,0.168897629,-0.588693917,2.036245823,0.439053625,-0.251536429,-0.196958691,0.447329193,-0.446083039,-0.13516593,0.007579838,-0.463705003,0.810293138,0.556745172,-0.041264821,0.304992616,-0.62693119,1.497324347,-0.716261744,1.888888359,-0.784340024,-0.018694611,-1.427259326,0.123232841,-1.773449421,1.051211476,0.988125145,-0.0396997,-0.663134754,-0.998650849,0.577396333,-0.075533129,-0.585119426,-0.441900641
O95838,-0.666483521,0.539353728,0.083560705,0.878468394,-1.672927022,-0.814398289,0.111707039,0.133061826,0.441454887,0.587107539,0.206897169,-0.568488955,1.030374885,0.735037446,-0.124723464,1.121147871,-0.740141213,1.575132489,0.199438348,-0.16136387,-0.109443903,-0.015717236,1.672880769,-0.683727324,0.241260931,-0.933920801,-0.051728945,-0.481633484,0.273019582,0.06033973,0.520402372,0.125711665,-1.13161099,0.862630367,0.121416077,0.091732562,0.16818884,0.773079455,-0.593152702,-1.258014083,-0.147949815,-0.011388579,0.593279481,0.384013772,-1.060700774,0.490980804,-0.999354422,0.965806484,-0.13974005,0.674164534,-0.513652802,0.226942331,-0.7352916,0.315902233,-0.768440485,1.424227357,0.156761497,0.335000515,-0.679890931,-0.319586247,0.509006679,0.125442535,-1.013140321,-0.063300408
DB00041,-0.507897615,-1.305339456,0.426907539,0.393220931,0.377456337,-0.994115114,0.508549035,0.85111326,-0.642575383,0.280073851,-0.038947739,-0.815535724,-0.537692785,0.15289481,-0.022548286,-0.440245271,-0.582410693,0.07212241,-0.943520963,-0.558176816,0.966940463,0.089638755,1.189155102,-0.053371601,0.810578108,1.854195356,-0.321024895,-1.303843617,-1.260783911,-0.101809055,0.967237115,1.101827979,0.636597633,0.236488998,-0.315131247,0.413150162,-0.37645486,0.042101189,0.474642456,-1.153452158,-0.395410091,0.350082099,-1.27727747,0.838001251,-0.363157123,-0.068557449,0.309022784,0.294359595,-1.284767628,-0.100577705,0.470573425,0.62381351,0.648393035,1.302494287,-1.615572929,0.022918414,0.735969126,0.202413812,-0.389827549,0.249043554,0.32547456,-0.423572958,-0.915159583,-0.684872508
DB00042,0.48598212,-1.216361761,-0.591587186,0.068547182,-0.25713259,-0.884984434,-0.190469593,0.289723516,-0.394376427,0.058321327,0.333147764,1.805096745,1.217122793,0.047808632,0.234714165,0.596684933,1.477677584,0.448526978,-0.372187763,0.433602184,0.521168768,0.248855799,-0.038230766,-1.55774045,0.244482338,-0.633840442,0.669276297,0.282895148,1.01834166,-0.015412575,-0.876569867,-0.49020493,-0.48817718,-1.142208099,0.641457438,0.281038076,-0.153470725,0.64143151,-0.206871659,-0.077203602,-1.650608897,0.306199282,0.263158053,0.482894868,0.212815717,-0.326030582,0.570804298,-0.90133816,-0.222749636,0.094523348,-0.492187738,0.351582438,-0.846393943,-0.018647643,-0.829827011,0.014741522,-0.346251518,-0.48849386,-0.138017356,-0.587670565,-1.172321677,0.316087931,0.122218862,0.192630336
P63027,0.279712558,-0.590434909,-0.471669972,0.124554805,-0.567546248,-0.420332134,-0.073215999,-0.055874802,0.133032277,-0.463189632,-0.261654854,1.632210135,1.234849691,-0.263332099,-0.274679869,1.296368599,1.569211245,0.5893417,-0.2647762,0.409547031,0.237326995,0.003664665,0.217594385,-1.050717235,0.854771137,-0.967476606,0.316922843,-0.438405097,0.372989237,0.206007838,-1.178406477,-0.585107863,-1.069327474,-0.86537981,0.373081028,-0.107952438,0.054296307,0.816008449,0.14803502,0.067701206,-0.554868817,-0.120582603,0.692774892,0.543730795,-0.286733627,0.064524762,-0.043786287,-0.514276147,0.776259422,0.306520432,-0.559546649,-0.088122077,-0.598729968,0.183677271,-0.43793115,0.183291584,-0.438115776,-0.730829835,0.100164331,-0.386229753,-1.018561006,0.731925905,0.184467956,-0.178137168
P23763,0.376933664,-0.707427263,-0.684654176,0.54402864,-0.370998979,-1.017348647,-1.068369627,0.119453534,0.058380008,0.118851162,-0.208299369,1.29168272,1.372156143,-0.506636024,-0.146008685,1.10385263,1.410252333,0.858933866,-0.815749228,0.307611018,0.273754746,-0.575291634,0.519114971,-0.543069661,1.190674663,-0.73556602,-0.025252853,0.469581783,0.234221965,0.255125403,-0.606542528,-0.494687259,-1.413780451,-1.321981311,0.540015996,0.143872544,0.269035429,-0.084751613,-0.0993964,-0.76676923,-0.482764721,0.056446619,0.845318317,1.268138051,-0.700728774,0.00516225,-0.519583941,-0.843263388,-0.084509432,0.191297919,-0.307998061,0.021964028,-0.558116853,-0.264207959,-0.357864112,0.659071863,-0.287783712,-0.580525696,-0.160569489,-0.061584342,-0.650672853,0.550677538,0.138614237,0.317348808
Q8N9I0,0.32112211,-0.901779354,-0.57152313,-0.091427423,-0.726314306,-0.573605716,-0.349328816,0.339445412,-0.044732708,-0.262249172,-0.379725635,1.428763747,0.923055053,-0.27582854,0.192614302,1.30315125,1.275573373,0.264985949,-0.369798869,0.863638341,-0.322101712,-0.468052775,0.577795565,-0.896853268,0.975242496,-0.680496097,-0.143018365,0.293509811,0.253645152,0.59272325,-0.984426141,-0.609327197,-1.325539589,-1.102498055,0.562665999,-0.30378601,0.627144277,0.666981578,-0.231008068,-0.195389584,-0.359865069,-0.303417057,0.565378189,0.615634501,-0.199080601,-0.177259356,-0.090535842,-0.491440415,0.096804798,0.201258302,-0.564271688,-0.185510024,-0.265308291,-0.483513415,-0.505085766,0.242213011,-0.570930183,-0.322023571,0.045774922,-0.561904252,-0.413536578,0.745814562,0.216968507,-0.143536165
DB00043,-0.145939305,-0.25088644,-0.643880844,0.326429993,-1.155674338,-1.205981374,-0.968097031,-0.776364207,0.53557992,-0.902090073,1.069003344,0.227450371,0.03195985,0.116145313,0.502473891,-0.66828531,0.536896586,0.933911741,-0.320753366,-0.716711521,-0.51854527,0.701598167,0.58057338,0.027283084,0.165465981,0.712016463,-0.269295186,-0.246414825,-0.517704487,-0.541660726,-0.249715641,0.380606294,0.418569952,0.659973443,-0.161565334,-0.261941373,-1.481211066,-0.946152091,0.365150839,-0.404257238,-0.073179625,0.208436534,-0.93626368,-1.046524167,0.833030879,0.568725646,0.445719719,0.551576078,0.592320263,-0.864112794,0.669005632,0.634516597,0.654418468,-0.240447745,-0.309791237,0.112574287,-0.578660786,-0.611560583,0.346775979,-0.555955052,-0.382476002,0.882707655,0.355974674,0.895550251
P12319,-0.212726131,-0.28625834,-1.014780879,0.298053622,-1.039292932,-1.557509065,-1.070391178,-0.199945197,0.2872926,0.250047863,0.496215641,0.153743833,0.119781047,0.198745638,0.618569613,-0.482627451,1.346653938,0.90129292,-0.378982991,-1.014059663,0.354861379,0.395224392,0.465002954,-0.137798846,-0.009124944,0.325935721,-0.106765114,-0.265181661,-0.091974981,-0.695854425,-0.184139907,-0.070171542,0.020357415,-0.251436412,0.182108298,-0.258116364,-1.515458465,-0.692884862,0.537266612,-0.583590269,-0.319681406,0.540394843,-0.988942921,-0.658097684,0.549096167,0.781576097,-0.000709397,-0.221076488,0.982122302,-1.228149772,0.288021237,0.713928223,-0.2245823,-0.593904614,-0.452592343,0.953806043,-0.294852138,-0.810189247,-0.052187171,-0.044173885,-0.413520783,0.929145396,0.320205778,0.583284318
Q01362,0.033996046,-0.796775699,-0.916279435,0.738748372,-0.685588896,-1.005830169,-1.096682787,-0.512933493,0.610221565,0.104175419,1.180446625,0.97313416,0.663220108,-0.014088133,-0.109054074,-0.295360982,1.11019361,0.546973884,-0.213772431,-0.352432817,0.676101983,0.481419414,-0.046173479,-0.947007179,0.431195229,0.054907784,0.176429525,-0.287102103,0.376990438,-0.357763737,-0.260978013,0.229698896,0.059701808,0.191422105,0.419243574,-0.130846992,-1.535092115,-0.656829894,0.449850678,-0.393143654,-0.429581523,-0.127350435,-0.256481826,-0.016653936,0.039513249,0.687716424,0.112616166,-0.051517129,-0.00303207,-0.765395582,0.549764991,0.808414221,-0.224792957,0.276142657,-0.425118029,-0.145162016,-0.476569891,-0.572640836,0.161914542,-0.326132506,-0.377458483,-0.06985829,-0.037730034,0.896703422
DB00044,0.504249811,0.106344163,0.27596432,-0.473539978,-0.165884316,-0.272948056,0.607258022,0.706903398,-0.126294822,0.33370775,-0.341840357,-0.33169356,0.521296859,0.634274065,-0.296095073,-0.027193412,0.288436264,-0.009249097,-0.049245983,-0.057289369,-0.594941139,-0.9805848,0.0978707,-1.171602726,0.770159423,-0.420224667,0.109971508,-0.309868991,0.049294535,0.313388735,0.587499261,0.372809261,0.444083244,-0.877200484,0.110309072,0.127274141,0.372004449,0.449041665,0.36994499,-0.369967014,-0.570789099,0.170409128,0.201419324,0.453378409,-0.472083062,0.498550534,-0.686962664,-0.28391239,-0.593374968,-0.113936186,-0.199648008,0.174873173,-0.956433237,0.227126569,-0.167511269,-0.307334393,-0.413880765,-0.189250126,-1.141517878,-0.557451844,-0.217460021,0.115978338,-1.244713306,-0.138723314
DB00045,-0.023352124,-0.372059077,-0.459524781,0.15950264,-0.020351008,0.467624366,0.027911015,-0.027515179,0.238268867,0.123610467,-0.17126587,0.676042676,0.084594496,-0.067777075,-0.110947385,0.383209109,0.735399008,0.038426254,-0.454444379,0.316735059,0.588014662,-0.921167791,-0.20495908,-1.13152051,-0.090215161,0.626614809,0.398693919,-0.333427161,-0.172913954,-0.65436101,-0.175954252,0.395598114,-0.101895519,-0.47074452,0.062125668,-0.484059393,-0.736630857,1.100920677,-0.149783343,-0.678216219,-0.488765597,-0.185379446,-0.894579411,0.248231322,0.640332818,0.650770068,1.026526809,-0.101133376,0.140246674,0.024127897,0.319130898,-0.44321698,-0.184967011,-0.090187378,0.311273634,-0.690865636,-0.951944172,0.214307651,-0.154230908,-1.060991168,0.783992231,0.291765124,0.071520194,-0.074340455
